Influenza	0.07085581868886948	-0.025059277191758156	-0.12126032263040543	-0.04111866280436516	0.08435267210006714	-0.10237893462181091	-0.018684029579162598	-0.013064469210803509	-0.08622987568378448	0.006663198117166758	0.05984019860625267	0.09391359239816666	-0.009297026321291924	-0.08135488629341125	0.0891544297337532	0.035303130745887756	-0.045484840869903564	0.09525290131568909	0.03990701586008072	-0.04315940663218498	-0.048574429005384445	0.1048395112156868	-0.08119384199380875	0.14051805436611176	0.10268164426088333	-0.04223966971039772	-0.06413982063531876	-0.06768608093261719	0.05076662078499794	0.04173353314399719	0.09773389995098114	0.03317335247993469	0.03453948348760605	0.044814907014369965	0.11591903120279312	0.037766896188259125	-0.0910576581954956	0.015265876427292824	-0.08929919451475143	-0.1489068567752838	0.13359887897968292	-0.15227782726287842	0.01989801414310932	0.038204893469810486	0.012630408629775047	0.130473330616951	0.05196661874651909	0.0934884250164032	0.07357878237962723	0.14755812287330627	0.003623516298830509	-0.14195267856121063	-0.02171693742275238	0.15521718561649323	0.11672363430261612	0.1383129060268402	-0.01285109855234623	-0.04921882599592209	0.11668676137924194	0.14775370061397552	-0.050545308738946915	-0.12330329418182373	0.05645909532904625	0.01992877945303917	-0.002759714610874653	-0.06583064794540405	-0.07372317463159561	-0.14544686675071716	0.06022394075989723	0.04960063472390175	0.09897094964981079	0.030174121260643005	0.05431676283478737	0.053154654800891876	-0.08910813927650452	0.02051532454788685	-0.019533690065145493	0.1249510869383812	-0.15792502462863922	-0.09587787091732025	0.05112263932824135	0.028563233092427254	0.033922791481018066	-0.11020557582378387	0.02469511143863201	-0.1309598833322525	0.13116426765918732	-0.08407879620790482	-0.07295720279216766	0.08565057069063187	0.08379840105772018	0.11308878660202026	0.02620423212647438	-0.09272660315036774	-0.08554425090551376	-0.05142451450228691
Body_Aches	0.03019491210579872	0.14384064078330994	0.08511222153902054	-0.14412599802017212	0.07590155303478241	-0.1398603618144989	0.10358908772468567	-0.025600016117095947	-0.061526503413915634	0.15509001910686493	0.0043057771399617195	-0.039140406996011734	0.049514152109622955	0.05308399349451065	0.011897394433617592	0.1109061911702156	0.034374043345451355	0.04057594761252403	0.1255054920911789	-0.13920706510543823	-0.15984059870243073	-0.14631962776184082	-0.11798712611198425	-0.022255031391978264	-0.015340113081037998	-0.09595628082752228	0.01008530892431736	0.10657882690429688	0.11710841208696365	-0.12993070483207703	-0.07196103781461716	-0.10421864688396454	0.026565076783299446	0.05431036651134491	-0.059286292642354965	-0.12759043276309967	-0.1436021625995636	-0.03803427889943123	-0.009564904496073723	-0.11385153979063034	0.1315479874610901	-0.13159482181072235	-0.07764842361211777	0.1049572303891182	-0.13813075423240662	0.0711897537112236	0.06183228641748428	-0.041201137006282806	-0.11337198317050934	0.08855103701353073	-0.04330430179834366	-0.15430431067943573	0.09440679848194122	-0.13176113367080688	-0.024670982733368874	-0.1163904070854187	0.08516502380371094	0.13829369843006134	0.0474945530295372	-0.14793533086776733	-0.048600420355796814	0.1155492439866066	-0.022293392568826675	0.06906314939260483	0.0315723642706871	0.15026693046092987	-0.05805642902851105	-0.126384899020195	0.057959530502557755	0.07283806055784225	-0.05915486812591553	-0.04753996804356575	-0.11139891296625137	-0.06639241427183151	0.0426836758852005	0.14519822597503662	-0.004271935671567917	-0.16106641292572021	0.10441618412733078	0.049380477517843246	0.06654159724712372	0.15105725824832916	-0.07771812379360199	-0.1373097151517868	0.1222260519862175	0.09778404980897903	0.06283619999885559	-0.0603809654712677	0.10530911386013031	0.05881061404943466	0.16070020198822021	-0.12433336675167084	0.07045528292655945	0.13570763170719147	-0.1635216474533081	-0.0964931920170784
COVID-19	-0.11687096953392029	-0.04192408546805382	-0.07822749018669128	0.13709481060504913	-0.09458090364933014	-0.03067275881767273	-0.04467718303203583	-0.10784730315208435	-0.0009566976805217564	0.008524741046130657	0.05087943375110626	0.023730264976620674	0.009985029697418213	-0.005411879625171423	0.15756173431873322	-0.04689886048436165	0.15792544186115265	-0.1489262729883194	0.085479736328125	0.08916763961315155	-0.08222034573554993	-0.0810333639383316	0.08847424387931824	0.003343413583934307	-0.08018884062767029	-0.05931195244193077	0.08198848366737366	0.12669438123703003	-0.00649605318903923	0.12465081363916397	0.049684204161167145	0.07387454807758331	0.02489444985985756	0.12678323686122894	-0.10822955518960953	-0.13922953605651855	-0.030706049874424934	0.07725928723812103	0.030307868495583534	-0.0292831901460886	-0.11039724200963974	-0.09009777754545212	0.0801951214671135	0.08777281641960144	-0.06349753588438034	-0.0032696127891540527	-0.026616020128130913	0.07963242381811142	-0.14231456816196442	-0.10225217789411545	-0.11764591187238693	-0.10632161796092987	0.0453682504594326	0.04831245169043541	0.0376012846827507	0.09002012014389038	0.09659656137228012	-0.014503231272101402	0.07874447107315063	-0.0032912283204495907	0.03188825026154518	0.15548722445964813	-0.08409009128808975	-0.104463592171669	0.051136139780282974	0.11673539131879807	0.13770179450511932	0.027046754956245422	0.1183641254901886	0.010973303578794003	-0.055417001247406006	0.03752892091870308	-0.05302264541387558	0.11446286737918854	-0.04468391090631485	0.09135740995407104	0.10972711443901062	0.04759868234395981	0.0029603340663015842	-0.10447365790605545	-0.1539434790611267	-0.03451750800013542	0.11020489037036896	-0.05831427499651909	0.013673031702637672	-0.007133822422474623	0.012868957594037056	0.0368039645254612	0.04671958461403847	0.0595909021794796	0.040633294731378555	0.15861929953098297	0.14542926847934723	0.09896054118871689	0.1366460621356964	-0.10475717484951019
Pneumonia	0.06406345218420029	0.03511197119951248	-0.13795220851898193	0.007178580854088068	-0.07604660838842392	-0.036256592720746994	0.14385737478733063	0.013428411446511745	-0.09065752476453781	-0.16236421465873718	0.14647714793682098	0.06784643232822418	0.1500539928674698	-0.08138976991176605	0.07236102968454361	-0.03519468754529953	-0.1600896418094635	-0.026188911870121956	0.03477007895708084	-0.07093345373868942	0.14145587384700775	0.15367606282234192	-0.13656485080718994	-0.15494246780872345	0.1107475534081459	-0.06097458675503731	0.07323480397462845	0.06554172188043594	0.04654136300086975	-0.09864611178636551	-0.12603509426116943	0.056344423443078995	-0.10650234669446945	-0.0918620154261589	0.0033931208308786154	-0.002784161129966378	0.13106711208820343	-0.13177622854709625	0.0760829746723175	0.026864606887102127	-0.02753511071205139	-0.15363658964633942	0.06432072073221207	-0.06865543872117996	0.021532271057367325	0.0482952743768692	-0.1257609874010086	-0.03753143548965454	0.09656380861997604	0.06396645307540894	-0.014529497362673283	0.058460477739572525	0.06330806761980057	0.06146130710840225	0.10105369240045547	-0.008544966578483582	-0.020651234313845634	0.12654000520706177	0.15487772226333618	-0.1167297214269638	0.005340497475117445	-0.10897039622068405	-0.095962293446064	-0.00866400171071291	-0.02915313094854355	0.10690866410732269	0.06615255028009415	0.1588495373725891	0.09319984912872314	0.16053862869739532	0.15804094076156616	0.03780938684940338	-0.09164787083864212	0.0886472687125206	0.1473044753074646	0.1416502594947815	-0.06923051178455353	-0.12146992981433868	-0.07699545472860336	-0.002452102955430746	-0.0019245725125074387	0.11940281093120575	-0.030329162254929543	0.06392869353294373	0.07168257981538773	-0.01293870247900486	0.1355259269475937	0.1196432039141655	-0.11068207025527954	0.053346503525972366	-0.05461694672703743	0.034307967871427536	0.1575227677822113	0.12661123275756836	-0.13371437788009644	0.15724189579486847
Chest_Pain	0.10254314541816711	0.02275947295129299	0.0561930313706398	-0.12595009803771973	-0.03240128606557846	0.15828633308410645	0.09456625580787659	-0.031641121953725815	-0.046459294855594635	0.13656207919120789	0.12012386322021484	-0.12476249784231186	0.06409130245447159	0.12101584672927856	-0.008535783737897873	0.032868314534425735	0.004672431852668524	-0.0895470380783081	-0.0936070904135704	-0.017421850934624672	0.1324348896741867	0.009574711322784424	-0.10558758676052094	-0.15088915824890137	-0.1459367722272873	-0.10259857773780823	0.09559360146522522	0.1459062099456787	-0.08933953940868378	0.03407441824674606	0.05645960569381714	0.022147104144096375	-0.11843359470367432	-0.15936419367790222	0.030618665739893913	-0.04782479628920555	0.1594993770122528	0.10471907258033752	0.08512164652347565	0.023059481754899025	-0.0825028121471405	-0.11376708745956421	0.024324551224708557	-0.04821546748280525	0.020258020609617233	0.14141833782196045	0.12414335459470749	-0.022254537791013718	-0.11565517634153366	0.03682805597782135	0.03960481286048889	-0.10583057999610901	-0.14376777410507202	0.10844358056783676	0.06302488595247269	0.05943635478615761	0.11023413389921188	-0.015700748190283775	0.15583536028862	-0.023960063233971596	-0.13260577619075775	0.06877579540014267	-0.1559184193611145	-0.004003200214356184	0.1297314465045929	0.12706950306892395	0.16110928356647491	0.023232940584421158	-0.09325294941663742	0.007593204732984304	0.14827264845371246	-0.15922102332115173	-0.09884224832057953	-0.13312077522277832	-0.1078794002532959	-0.14556573331356049	0.01885826885700226	-0.011956223286688328	0.10497859865427017	-0.024258961901068687	0.04902644082903862	-0.02877073734998703	-0.13208383321762085	0.07542815059423447	0.1467883586883545	-0.04210904985666275	0.07514036446809769	-0.15440340340137482	0.13168208301067352	-0.03167104348540306	0.14146846532821655	0.010216228663921356	0.06094186380505562	0.027266867458820343	0.018132152035832405	0.035784680396318436
Bronchitis	0.02792566455900669	0.06897897273302078	0.05804038792848587	0.046178434044122696	0.049889400601387024	0.14872212707996368	-0.13727793097496033	0.09632813185453415	-0.15938344597816467	0.1148252934217453	0.02483714185655117	-0.0477469339966774	0.11203411966562271	-0.13320772349834442	0.11119916290044785	-0.10537280142307281	-0.04205445200204849	-0.1615780144929886	-0.14259004592895508	-0.12304407358169556	-0.05032849684357643	0.12987136840820312	-0.15553686022758484	-0.021431179717183113	0.050431422889232635	-0.04828996956348419	0.15995533764362335	0.0031789231579750776	0.11858709156513214	-0.0736832246184349	-0.09118502587080002	-0.07972175627946854	-0.015666497871279716	0.14734846353530884	0.009769771248102188	-0.08979383111000061	-0.07427370548248291	0.002143399091437459	0.059382129460573196	-0.12043879181146622	0.07375641167163849	-0.16209685802459717	0.1042892262339592	-0.1454528272151947	-0.14584851264953613	-0.10283654928207397	0.08262745290994644	0.03662880137562752	0.1524934321641922	0.13677601516246796	-0.04267672821879387	-0.08817282319068909	-0.12183645367622375	0.1106935366988182	0.08658527582883835	-0.015676552429795265	0.1034194603562355	0.05354534089565277	0.04153703153133392	0.04022033512592316	-0.08986342698335648	0.14686986804008484	0.11555379629135132	0.14245650172233582	-0.1006215289235115	-0.12043483555316925	-0.10696753114461899	-0.10964469611644745	0.14073558151721954	-0.12045583873987198	0.037896327674388885	0.005077478475868702	0.019468901678919792	-0.05138736218214035	0.007354154251515865	0.139092817902565	0.0500846691429615	-0.10873140394687653	-0.007719992194324732	-0.013718876987695694	0.10789628326892853	-0.10460466146469116	0.06845758110284805	-0.05832211673259735	0.1307263821363449	-0.05392055958509445	-0.028371969237923622	-0.0016857031732797623	-0.15474435687065125	-0.05920395627617836	0.14434503018856049	0.06401132047176361	0.1120089516043663	0.07791450619697571	-0.07405755668878555	0.1464550942182541
Chest_Tightness	0.12762458622455597	0.06755606830120087	-0.13286764919757843	0.016588112339377403	-0.12225892394781113	0.10508552938699722	-0.04844275116920471	0.12271042168140411	0.12106172740459442	0.12895986437797546	-0.11587638407945633	0.09037681668996811	0.1401086151599884	0.0031932538840919733	-0.06302990764379501	-0.14092302322387695	-0.010048963129520416	-0.10276919603347778	0.0535808801651001	0.034898653626441956	-0.06984663009643555	-0.0033164035994559526	-0.09249480068683624	0.05881308764219284	0.13162963092327118	-0.08062011748552322	-0.10395301878452301	-0.01403053943067789	-0.038639556616544724	-0.15804187953472137	0.10757617652416229	-0.029228098690509796	0.06871180981397629	0.1540926843881607	-0.1308986395597458	0.13430123031139374	0.008480493910610676	0.15555116534233093	-0.0159066841006279	0.11078408360481262	0.058618392795324326	-0.12678314745426178	-0.054396048188209534	0.06486955285072327	0.11352743208408356	-0.14905297756195068	0.10039571672677994	-0.10125812888145447	0.11808393895626068	-0.027435049414634705	0.019387388601899147	0.14058244228363037	0.061068370938301086	-0.11430857330560684	0.13292495906352997	-0.013040022924542427	-0.006168794818222523	-0.1618914157152176	0.028165306895971298	-0.0004955301410518587	-0.14837835729122162	-0.09077953547239304	0.15487058460712433	-0.15562407672405243	0.12960588932037354	-0.037647079676389694	0.061139415949583054	-0.15031901001930237	-0.09041787683963776	-0.1507536619901657	0.10663977265357971	-0.1536487340927124	0.14432448148727417	0.1578625589609146	-0.06793536245822906	0.017216695472598076	-0.017594365403056145	-0.132736936211586	-0.09031132608652115	-0.10156028717756271	-0.01133920531719923	-0.07163119316101074	0.10339197516441345	-0.07685321569442749	0.060955923050642014	0.05120566114783287	-0.12538330256938934	0.06158994883298874	-0.08720225095748901	0.0393809899687767	0.1409413367509842	-0.06833081692457199	0.07445988059043884	0.15253578126430511	-0.1633719503879547	0.14127156138420105
Tuberculosis	-0.08552516996860504	0.13848039507865906	0.08745432645082474	-0.0064430078491568565	-0.14533378183841705	-0.09212358295917511	-0.11834385991096497	-0.13847295939922333	0.04451228305697441	0.14056457579135895	0.125499427318573	-0.07028882205486298	0.12531042098999023	0.03127579391002655	-0.012781691737473011	0.034466277807950974	0.07545989006757736	0.09107298403978348	-0.10066929459571838	0.11368683725595474	0.1585296094417572	-0.027239244431257248	0.03652488812804222	-0.11245166510343552	0.03841914236545563	0.02252967096865177	-0.15706926584243774	-0.15701709687709808	0.12249227613210678	-0.07433173060417175	0.08317995816469193	-0.08919069916009903	0.09150282293558121	0.14622868597507477	0.011617980897426605	-0.15549299120903015	-0.015873130410909653	-0.06335924565792084	0.03319455683231354	-0.056434884667396545	-0.11983654648065567	0.12407755851745605	-0.09307622909545898	-0.07092507928609848	0.09043307602405548	0.11304710805416107	0.008201610296964645	-0.03236721083521843	-0.03721665218472481	-0.04346836730837822	-0.0698959156870842	0.11079373955726624	-0.08888167142868042	-0.1556270569562912	-0.0591089203953743	-0.05428685247898102	-0.08244208246469498	0.043738123029470444	-0.07001657038927078	-0.11285247653722763	-0.09186960756778717	-0.03216894716024399	0.10641586035490036	-0.026868455111980438	0.024913819506764412	-0.08686859905719757	0.08432801812887192	0.011789994314312935	0.0328947976231575	-0.03316309675574303	0.1584021896123886	0.11773263663053513	-0.07481245696544647	-0.13399820029735565	-0.028202909976243973	0.15116402506828308	-0.0674063190817833	0.133366197347641	0.033196836709976196	-0.04765646532177925	-0.0770881325006485	-0.02360871061682701	-0.12487230449914932	-0.13617511093616486	0.005491568241268396	0.10929824411869049	0.1377786546945572	0.025460494682192802	0.01541796326637268	0.06024356931447983	0.05229129642248154	0.06473693996667862	0.15813639760017395	-0.01872752048075199	-0.08417189866304398	-0.14183492958545685
Coughing_Blood	0.07463895529508591	-0.14016841351985931	0.09044578671455383	0.0053679547272622585	0.15769924223423004	-0.11521819233894348	-0.07233725488185883	0.06085323169827461	0.1489000767469406	-0.04324062541127205	0.09508084505796432	0.11938672512769699	0.09550148248672485	-0.017256030812859535	0.13018599152565002	-0.06694237887859344	0.10247232764959335	0.14848387241363525	0.10670140385627747	-0.1173396185040474	0.05729636922478676	0.13162140548229218	0.030142975971102715	-0.02590191923081875	-0.06304700672626495	0.13357600569725037	0.07877843827009201	0.12471520900726318	-0.15318140387535095	0.07971648126840591	0.08269617706537247	0.11781901121139526	0.011914297938346863	0.1361742466688156	0.08880405128002167	-0.161542609333992	0.01965724676847458	0.14635246992111206	0.14966914057731628	-0.1382656991481781	-0.13049045205116272	-0.13916613161563873	-0.14745838940143585	-0.03667529672384262	-0.019644511863589287	0.0027380262035876513	0.14565622806549072	0.09421232342720032	0.027119625359773636	-0.05265659838914871	-0.12606993317604065	0.0733237937092781	-0.01943659596145153	0.07695067673921585	0.10865669697523117	-0.08089475333690643	0.15515977144241333	-0.039967674762010574	-0.04584897309541702	0.13757042586803436	-0.09140906482934952	-0.014344455674290657	-0.07126262038946152	0.015355588868260384	0.08192865550518036	-0.05756900832056999	0.0684056207537651	-0.11088234186172485	0.050859786570072174	-0.12682390213012695	0.04923639073967934	-0.07131761312484741	-0.1251884251832962	-0.07304423302412033	0.0516771525144577	-0.09528309851884842	0.0711086168885231	-0.12073395401239395	-0.08100124448537827	0.08228922635316849	0.14849036931991577	0.08137014508247375	-0.14271092414855957	-0.08797851204872131	-0.14397017657756805	0.07159409672021866	0.11408649384975433	0.08958292752504349	-0.10877841711044312	0.08603852987289429	-0.06301595270633698	-0.005428692791610956	-0.13116464018821716	0.036215443164110184	0.13740819692611694	-0.061132971197366714
Malaria	0.02484968677163124	-0.049614716321229935	0.08182152360677719	0.0819736048579216	0.06630916893482208	0.0624544620513916	-0.01785573922097683	-0.011150408536195755	0.10907302051782608	-0.16076380014419556	0.008134945295751095	0.02821170538663864	0.06273369491100311	-0.027336493134498596	0.030871186405420303	-0.14277522265911102	-0.04832896962761879	-0.09321518242359161	-0.1529085338115692	-0.05136469751596451	0.004835743922740221	-0.12510906159877777	0.1311819702386856	-0.04894585162401199	0.07716180384159088	-0.13960984349250793	0.06411004811525345	-0.15778113901615143	-0.08130986243486404	-0.041654814034700394	-0.07263706624507904	0.1371328979730606	-0.020027467980980873	0.020678304135799408	-0.06812480092048645	0.05477909371256828	0.05405332148075104	0.06058364734053612	0.12162087112665176	-0.11081031709909439	0.018264807760715485	0.11445770412683487	0.09809166938066483	-0.1459670215845108	0.004315824713557959	0.08303984254598618	0.1009075716137886	0.07372555136680603	0.10257512331008911	-0.05907592177391052	0.05728753283619881	0.11591849476099014	0.058170996606349945	-0.09730005264282227	0.10942576825618744	0.132406085729599	0.0975104421377182	-0.11639809608459473	0.05663181096315384	-0.1187707856297493	-0.15130481123924255	-0.14645260572433472	0.104277603328228	-0.01413999404758215	0.10862725973129272	0.11452917009592056	0.09070862084627151	0.12218631058931351	0.03846820071339607	0.1480344980955124	0.13443736732006073	-0.006082463078200817	0.1110096275806427	0.11967212706804276	0.08417991548776627	0.03493925556540489	0.07756581157445908	0.0032677873969078064	-0.00034375087125226855	0.07352354377508163	-0.0798761323094368	-0.04586547613143921	0.12688346207141876	-0.13298261165618896	0.14010193943977356	-0.07755940407514572	0.14932262897491455	0.05494264140725136	0.0319695919752121	-0.03660135343670845	-0.14217622578144073	0.1392577439546585	0.09388409554958344	0.05882655456662178	-0.1455831229686737	-0.07414037734270096
Chills	-0.14388149976730347	0.05804187431931496	0.12548460066318512	0.1359504610300064	-0.0764547809958458	-0.08465144783258438	0.13420513272285461	0.011799035593867302	0.15611238777637482	-0.061342932283878326	0.07344942539930344	-0.16042251884937286	-0.017766201868653297	-0.0526554211974144	-0.1338573396205902	0.026060253381729126	-0.050735361874103546	0.16047492623329163	0.02207798697054386	-0.10085247457027435	0.028665119782090187	0.14524032175540924	-0.12457440048456192	0.01114578079432249	0.050867773592472076	0.03572119399905205	-0.08106778562068939	-0.019027605652809143	-0.14191807806491852	-0.12164680659770966	0.14831452071666718	0.11335825175046921	-0.11272376030683517	-0.06403619796037674	-0.01890888251364231	-0.14627493917942047	0.10698548704385757	0.10634934902191162	-0.11186607927083969	-0.11262964457273483	0.10289133340120316	-0.13696324825286865	0.1013757586479187	-0.14812369644641876	0.06085437908768654	-0.04701445996761322	0.03889395669102669	-0.15090391039848328	0.14275243878364563	-0.10318820923566818	-0.1511218249797821	-0.10924407839775085	0.1451612114906311	0.14055585861206055	0.13514260947704315	0.1336674839258194	-0.09921743720769882	-0.06988579034805298	0.07300495356321335	0.10898427665233612	0.02444864809513092	-0.00945813488215208	-0.0476764440536499	-0.13043242692947388	-0.06764748692512512	-0.10034043341875076	-0.00867403857409954	-0.1273220330476761	0.13791030645370483	0.11932467669248581	0.13428303599357605	-0.022577080875635147	0.025302637368440628	0.0771404579281807	0.13725903630256653	0.018300987780094147	-0.04690416902303696	0.11117421835660934	-0.14848558604717255	-0.0637434870004654	-0.012004760093986988	-0.11428374797105789	0.009604320861399174	-0.02150026336312294	-0.10641831904649734	-0.12637509405612946	-0.04843093454837799	-0.05086653307080269	-0.028656167909502983	-0.10658526420593262	0.014147070236504078	-0.06814204156398773	-0.010036928579211235	-0.14701247215270996	0.004025818780064583	-0.05773252248764038
Dengue	-0.032466720789670944	0.09907151013612747	0.08932776004076004	-0.1361859291791916	-0.13845214247703552	0.1402510702610016	-0.09054223448038101	-0.015288235619664192	-0.05546259507536888	-0.11862494051456451	-0.05429437756538391	-0.037965305149555206	-0.018719889223575592	0.12803314626216888	0.1338350921869278	-0.06268752366304398	0.015497853048145771	-0.01699785329401493	-0.04641186445951462	0.05605887994170189	-0.14301921427249908	0.15473613142967224	-0.03756628930568695	-0.051630619913339615	0.0034477750305086374	-0.15992093086242676	0.04722089320421219	0.0553332194685936	-0.002315668622031808	0.04585449770092964	0.07279278337955475	0.14608627557754517	-0.00627141585573554	-0.0788913145661354	0.09103245288133621	-0.14820711314678192	-0.09016364812850952	0.12252599000930786	0.06361904740333557	0.07153439521789551	0.05766793712973595	0.05208620801568031	0.07488390058279037	0.012566955760121346	-0.1109742522239685	-0.04299116134643555	-0.015880361199378967	0.10933753848075867	0.09089764207601547	-0.1303769201040268	-0.07305086404085159	0.04828538000583649	0.11273596435785294	0.08821456879377365	0.15593962371349335	-0.06381619721651077	0.008858333341777325	0.14166855812072754	-0.08330902457237244	-0.11286338418722153	0.13332942128181458	-0.15560714900493622	0.09057628363370895	-0.031074969097971916	0.08509001135826111	-0.03375018760561943	-0.14171086251735687	0.10054425895214081	0.09807389229536057	-0.1372930109500885	-0.04669502377510071	0.1309666782617569	0.03231896832585335	-0.008267153985798359	-0.09135603904724121	0.042823370546102524	-0.021943502128124237	-0.011818443424999714	-0.031222447752952576	0.0848497822880745	-0.05132633447647095	-0.047833047807216644	0.08904647827148438	0.07161353528499603	-0.06601398438215256	0.08661778271198273	0.15111827850341797	0.12499851733446121	-0.010073872283101082	0.043139468878507614	0.1269560158252716	0.0549742691218853	-0.14412382245063782	-0.1261579543352127	0.01587829552590847	-0.06004362925887108
Bleeding_Gums	-0.09660188108682632	-0.022766083478927612	0.004896293394267559	0.00512846652418375	-0.10472395271062851	0.07465857267379761	0.05446425452828407	0.13576802611351013	0.12779082357883453	0.07054990530014038	-0.033981435000896454	-0.11071006953716278	-0.021799063310027122	0.15756067633628845	-0.1105656623840332	0.10121825337409973	-0.10179543495178223	0.16314180195331573	0.1408434957265854	0.1170249953866005	-0.11757663637399673	-0.028935737907886505	-0.14447855949401855	0.14308573305606842	0.04571138322353363	-0.026507871225476265	0.05476066470146179	0.08916179090738297	-0.11114728450775146	0.06937213242053986	-0.05330413579940796	0.11670183390378952	0.07320857048034668	-0.06781330704689026	-0.13741916418075562	0.11590048670768738	-0.16472619771957397	-0.15138885378837585	-0.15244945883750916	-0.07866882532835007	-0.0631469190120697	-0.005251249764114618	-0.04404529929161072	0.054584652185440063	0.09379782527685165	0.13094407320022583	-0.09047446399927139	0.019795391708612442	-0.15118193626403809	0.016787443310022354	0.10773690044879913	-0.02788465842604637	0.031213054433465004	0.14020253717899323	-0.07942646741867065	0.03424723073840141	-0.0897219106554985	0.13518963754177094	-0.03956101834774017	0.11409054696559906	0.051244623959064484	-0.10232386738061905	0.03630637377500534	0.11834649741649628	-0.06752567738294601	0.13609513640403748	-0.1607060581445694	0.0033158205915242434	-0.04898720234632492	0.07007624953985214	-0.012105011381208897	0.14749003946781158	-0.014863966032862663	-0.1292119026184082	-0.11322663724422455	-0.1555982083082199	0.13893753290176392	0.030684716999530792	0.013954800553619862	0.07834699749946594	0.1411624550819397	0.08863820880651474	-0.0039844997227191925	0.1396065205335617	0.11217673122882843	-0.10091673582792282	0.14377455413341522	-0.1046723872423172	-0.05672202259302139	-0.01222500205039978	0.11057839542627335	-0.15298540890216827	-0.10377027839422226	0.02964780479669571	-0.101275734603405	-0.005142558366060257
Typhoid	-0.14638221263885498	0.0834418460726738	-0.025751592591404915	-0.09686510264873505	0.0890939012169838	-0.04591897130012512	0.014427493326365948	0.07654644548892975	-0.013768783770501614	0.06784228980541229	0.03972193971276283	-0.009861609898507595	0.08019514381885529	-0.01744278147816658	-0.01831483095884323	-0.10975215584039688	-0.14484336972236633	-0.008852498605847359	-0.06386230140924454	-0.07931236922740936	-0.10544341802597046	-0.054794225841760635	0.060361504554748535	-0.08668749779462814	-0.15508845448493958	-0.018734419718384743	0.10256529599428177	-0.1580391228199005	-0.11680062860250473	0.11619418859481812	-0.07377705723047256	0.015300333499908447	-0.04002947732806206	-0.020864112302660942	-0.06636776030063629	-0.05531363934278488	-0.09257912635803223	-0.09924589842557907	-0.15679927170276642	-0.1258745789527893	0.008159169927239418	0.15339352190494537	0.069001704454422	-0.08435764908790588	-0.037722356617450714	0.01110220979899168	0.04940950125455856	-0.07627208530902863	0.09371650218963623	-0.12084352970123291	0.11791282892227173	-0.0415998138487339	-0.054957643151283264	0.1560533493757248	0.14322416484355927	-0.03413479030132294	0.10661821812391281	-0.058921631425619125	-0.09481168538331985	-0.12431839108467102	-0.14398540556430817	-0.10487980395555496	-0.11382905393838882	0.12859664857387543	0.09910330176353455	0.12839019298553467	-0.04866105318069458	-0.14493735134601593	-0.005415933206677437	-0.028894593939185143	-0.07334309071302414	0.04930931702256203	0.027297772467136383	-0.06339208036661148	0.13060759007930756	-0.11709621548652649	-0.0635688528418541	-0.10811308026313782	-0.07176307588815689	-0.03918369114398956	0.13473054766654968	-0.1259424090385437	0.10472231358289719	-0.11368735134601593	-0.01178740058094263	-0.0008810333674773574	0.08055748045444489	0.04441341757774353	0.11343122273683548	0.01964569464325905	0.0903964638710022	-0.1290055513381958	-0.08377683162689209	0.09599687159061432	0.04311410337686539	0.12281674891710281
Abdominal_Pain	-0.08183537423610687	-0.06759615987539291	0.11090439558029175	0.042066823691129684	0.15362946689128876	-0.011370479129254818	0.08287090063095093	0.08608526736497879	-0.04915064200758934	-0.09263475239276886	-0.0007412455161102116	-0.001822280464693904	0.012700391933321953	-0.1343739628791809	-0.11144115775823593	0.0009898244170472026	-0.05050278082489967	0.07980561256408691	0.041400156915187836	-0.041590187698602676	0.11840689182281494	-0.14484363794326782	0.16267040371894836	-0.06530587375164032	-0.019704017788171768	-0.1460942178964615	0.16039802134037018	0.04249020293354988	-0.06922148913145065	0.1505717635154724	-0.09961599856615067	0.09706959873437881	-0.03241235017776489	0.07712117582559586	-0.027819378301501274	-0.13115988671779633	-0.12131497263908386	-0.1351887732744217	-0.07952188700437546	-0.05792304500937462	-0.05846859887242317	0.09580057859420776	0.12946917116641998	0.020428290590643883	0.09906336665153503	0.13748687505722046	0.020369287580251694	0.08375314623117447	-0.05058513581752777	-0.06641379743814468	0.09017274528741837	-0.09325716644525528	-0.10071896016597748	-0.07214828580617905	0.04708502069115639	-0.12004430592060089	0.1183495745062828	0.13820618391036987	-0.019791744649410248	0.12885430455207825	0.05733739957213402	-0.08224429190158844	0.08771441876888275	-0.028817906975746155	-0.034781958907842636	-0.041814811527729034	0.05944385752081871	-0.14464783668518066	0.035007547587156296	0.14484113454818726	0.10973808914422989	-0.04919774457812309	0.05437133461236954	-0.004950129892677069	0.11575213819742203	0.11701398342847824	0.14622077345848083	0.04548851028084755	-0.029472189024090767	0.12654130160808563	0.043993499130010605	-0.07469416409730911	0.06275148689746857	-0.15219132602214813	0.118304044008255	0.024272294715046883	-0.002172810724005103	0.01647227071225643	0.06994199752807617	0.05717870593070984	0.061331674456596375	0.008411158807575703	-0.12328901886940002	0.13423605263233185	0.016672180965542793	-0.08486179262399673
HIV	0.09277373552322388	0.09851061552762985	0.13464516401290894	0.0734608992934227	-0.04189073666930199	-0.055891234427690506	-0.09405659139156342	-0.13376475870609283	0.10607435554265976	-0.02045486494898796	-0.1476019322872162	-0.04814588651061058	-0.015499995090067387	0.01233026571571827	0.148537278175354	0.03346427530050278	-0.1591353416442871	-0.12327975034713745	0.08016735315322876	0.026198407635092735	-0.10899131745100021	0.07928156852722168	-0.015697184950113297	0.08176812529563904	0.05351915955543518	-0.11067386716604233	0.02096766233444214	-0.12258422374725342	-0.08847206085920334	-0.008088905364274979	-0.04267854243516922	-0.04800788685679436	-0.03189252316951752	-0.1591174602508545	-0.08526534587144852	-0.03421793505549431	-0.13117948174476624	0.008115510456264019	-0.010373933240771294	-0.08546168357133865	-0.15870746970176697	0.005703984294086695	-0.08695690333843231	0.10892489552497864	0.10642653703689575	-0.04580078646540642	0.11201085895299911	-0.007868313230574131	-0.09500888735055923	-0.07220572978258133	-0.06000162288546562	-0.15899507701396942	-0.15398868918418884	0.1187690868973732	-0.07502574473619461	-0.06745371222496033	-0.034242622554302216	-0.0008172030211426318	-0.11170496791601181	-0.008773935958743095	-0.013486840762197971	0.13252823054790497	-0.040447939187288284	0.05371369048953056	-0.051051948219537735	0.11718814820051193	0.12624292075634003	-0.09236489981412888	0.1647689789533615	0.01632549799978733	0.10407362133264542	-0.10613982379436493	-0.0631893202662468	-0.03250822797417641	-0.15967325866222382	0.14741452038288116	-0.1432325392961502	0.006611616350710392	0.015534737147390842	-0.10888415575027466	-0.08029123395681381	0.05029333755373955	0.03734567016363144	-0.05885443091392517	-0.0010786880739033222	0.07806017249822617	-0.05983907729387283	0.1070476546883583	0.08764565736055374	0.03423307090997696	-0.015139584429562092	-0.14144402742385864	0.09390413016080856	0.025059696286916733	0.03809018433094025	-0.001272472902201116
Fatigue	0.11845723539590836	-0.0630747377872467	-0.09396575391292572	0.01174884382635355	-0.04578513279557228	-0.0330079011619091	0.15368086099624634	0.13753949105739594	0.1579648107290268	-0.11406194418668747	0.07519786059856415	0.07245110720396042	0.004726630635559559	0.06395746022462845	0.021372217684984207	0.010292445309460163	0.05811680853366852	0.0002617913414724171	0.1175306960940361	-0.07264908403158188	0.08269548416137695	-0.08619140833616257	-0.09723984450101852	-0.10699441283941269	-0.15168511867523193	-0.0676279291510582	0.13778026401996613	0.09767593443393707	-0.08634169399738312	-0.03800185024738312	0.1515910029411316	0.03292727842926979	-0.12682904303073883	-0.12318235635757446	0.006764920428395271	-0.04132506996393204	-0.10086169093847275	-0.12088453769683838	0.021981598809361458	-0.11723333597183228	0.07946359366178513	0.01712297461926937	0.05086333304643631	0.04126514494419098	0.09419264644384384	0.09701661765575409	0.028535442426800728	0.15602613985538483	0.14216463267803192	-0.04734307527542114	0.09513826668262482	-0.08710861206054688	-0.024659641087055206	-0.14941102266311646	0.0659927949309349	-0.01935606077313423	0.0636926218867302	-0.0010647596791386604	0.03174552321434021	0.11356955021619797	-0.11569526046514511	-0.06870441883802414	-0.03575507923960686	-0.07546080648899078	0.06905389577150345	-0.15223410725593567	-0.03239111974835396	0.023790843784809113	0.05535530671477318	0.059047479182481766	0.07363934814929962	-0.11351057142019272	0.004656059201806784	0.14794811606407166	0.0884130522608757	-0.01228280272334814	0.12199895083904266	-0.08500625193119049	0.06155410781502724	0.07258754223585129	0.036479201167821884	-0.02039092220366001	0.13623932003974915	-0.08438734710216522	-0.11000535637140274	-0.11400917172431946	0.15554900467395782	0.09138140082359314	-0.024190550670027733	-0.13858695328235626	0.03581038862466812	0.16192136704921722	0.13763386011123657	-0.044751688838005066	0.1395120471715927	0.1477520763874054
Hepatitis_B	0.1239803209900856	-0.031630028039216995	0.07295120507478714	-0.024795468896627426	-0.024355610832571983	0.09186114370822906	0.13715007901191711	0.07943256199359894	0.132965087890625	0.11280267685651779	-0.027912534773349762	0.048214443027973175	-0.07603519409894943	0.12508511543273926	-0.07807080447673798	0.040902744978666306	-0.020242732018232346	-0.02536582574248314	-0.06634160131216049	0.07967466861009598	-0.12071317434310913	-0.12887996435165405	0.16045904159545898	-0.0130600705742836	-0.11848142743110657	0.08986880630254745	0.04634053632616997	0.033411990851163864	-0.10367798060178757	-0.0954405665397644	0.08529634028673172	0.07501332461833954	-0.07188494503498077	0.1310448944568634	0.16084270179271698	0.04103792831301689	-0.11227045208215714	0.14211931824684143	-0.04514875262975693	0.00007225933950394392	-0.10498183965682983	-0.0868980884552002	-0.14522333443164825	0.03279935196042061	0.09105778485536575	0.04699826240539551	0.036501429975032806	-0.05745229870080948	0.026361873373389244	0.05262143164873123	0.0439133420586586	-0.08676110953092575	0.023114362731575966	-0.04445773363113403	-0.0001751642266754061	-0.11572861671447754	0.0018016808899119496	-0.11596169322729111	-0.030196819454431534	-0.12195826321840286	0.07112469524145126	-0.09312354773283005	0.040774695575237274	0.012336661107838154	0.14259624481201172	0.11209999024868011	0.04265206679701805	-0.1505301147699356	-0.1347426325082779	0.02513040229678154	-0.03387898951768875	-0.05406695231795311	0.0874096006155014	0.07688005268573761	0.048059411346912384	0.02623673528432846	-0.14699767529964447	0.0695548728108406	0.1533859521150589	0.04278300330042839	0.03623690456151962	-0.1140851154923439	0.02334524132311344	0.02020222879946232	-0.10791389644145966	-0.09261554479598999	0.004556326195597649	-0.13605055212974548	0.1442149579524994	0.04424060508608818	-0.015810061246156693	0.06070219725370407	0.003343245480209589	0.039431337267160416	-0.0647500678896904	-0.07533279806375504
Hepatitis_C	-0.1358417570590973	0.006575560197234154	0.02853265590965748	0.12258737534284592	0.05166590213775635	-0.06581448018550873	0.009529991075396538	-0.11529672145843506	-0.11635187268257141	-0.029033184051513672	-0.009737522341310978	-0.017588313668966293	-0.01494045089930296	-0.032027266919612885	0.14204445481300354	0.0792701244354248	-0.01804214157164097	-0.16086812317371368	0.1356676071882248	0.09488852322101593	-0.050155818462371826	-0.11166088283061981	-0.1519007682800293	-0.14421869814395905	-0.051081061363220215	-0.07267193496227264	-0.06977930665016174	-0.05741768330335617	0.1421036422252655	-0.07332656532526016	0.03220599517226219	0.10496491193771362	0.12341679632663727	0.06175845488905907	-0.05215566232800484	-0.056967832148075104	-0.10013319551944733	0.03939797356724739	-0.11471791565418243	0.055529072880744934	-0.11132822930812836	-0.13920100033283234	0.07645417749881744	-0.0640542134642601	-0.10872393846511841	0.0027880719862878323	-0.012103053741157055	-0.1160883978009224	-0.02474396675825119	-0.11773166805505753	-0.1260755956172943	0.07531625032424927	0.15917401015758514	0.09215793758630753	0.10702279210090637	0.037657350301742554	0.08445276319980621	0.13342514634132385	-0.023552266880869865	0.04515181854367256	0.09204886853694916	-0.05466804653406143	-0.06849724054336548	-0.008129908703267574	0.12417090684175491	0.0750088095664978	0.10909202694892883	-0.057963814586400986	-0.05861285701394081	0.1529502272605896	0.09192999452352524	0.16212789714336395	-0.11739339679479599	-0.058754730969667435	0.03398589789867401	-0.05149256810545921	-0.08085528761148453	-0.0024994995910674334	-0.16274695098400116	-0.1113620176911354	-0.15461556613445282	-0.06716232001781464	-0.12624619901180267	-0.08060146868228912	-0.10657133162021637	0.1320275217294693	0.0021858150139451027	-0.1305960863828659	-0.15162859857082367	-0.15252047777175903	0.017027629539370537	-0.15544915199279785	-0.08313107490539551	-0.1135442852973938	0.11365751177072525	0.15007776021957397
Measles	0.12414178997278214	-0.010426151566207409	-0.00016315278480760753	0.10801198333501816	0.045998699963092804	0.08356793969869614	-0.08203890174627304	0.03453448414802551	-0.09299483150243759	0.09405754506587982	0.054889630526304245	0.1426471322774887	-0.10036637634038925	0.01934850588440895	0.13136102259159088	-0.08158165216445923	0.08228284120559692	-0.060671597719192505	-0.1278597116470337	0.08396165072917938	-0.0982469990849495	0.09108315408229828	-0.11770174652338028	-0.008457311429083347	-0.14408110082149506	0.012025074101984501	0.1474282294511795	0.029509661719202995	-0.01786556839942932	-0.03727312758564949	0.06949766725301743	-0.08826719224452972	0.08614145964384079	-0.047883253544569016	0.07172077149152756	0.1247672513127327	0.029206670820713043	-0.012852378189563751	0.12606976926326752	-0.14860892295837402	-0.04338648170232773	0.0053495075553655624	-0.13484567403793335	0.10151992738246918	0.03556905686855316	-0.08661958575248718	-0.08571023494005203	-0.05505805462598801	0.03849010542035103	0.044381726533174515	0.09665270894765854	0.14053048193454742	0.09333138912916183	-0.06446234881877899	0.029724763706326485	0.13644710183143616	-0.11051399260759354	-0.10194377601146698	-0.15701353549957275	-0.13078813254833221	0.08426855504512787	0.11042959988117218	0.16197678446769714	-0.0718572735786438	0.10546573251485825	-0.10314302891492844	0.021462297067046165	-0.07446087896823883	0.07952375710010529	0.07239145040512085	-0.08711504936218262	0.019089210778474808	0.002117045922204852	-0.046210333704948425	-0.005334497429430485	0.007893991656601429	-0.06303871423006058	-0.07424990087747574	0.09881579130887985	-0.1373494416475296	-0.07051898539066315	-0.05030737817287445	0.04470086842775345	0.05250370129942894	-0.15085358917713165	0.12974987924098969	-0.015565446577966213	-0.05502231419086456	0.09294655919075012	-0.10726174712181091	0.08049760013818741	-0.10950195789337158	0.11629993468523026	0.03602750971913338	-0.1473013460636139	0.021777318790555
Cough	-0.06280824542045593	-0.12243736535310745	-0.09609537571668625	0.08031923323869705	-0.017331523820757866	-0.010387751273810863	0.014324462972581387	0.15932880342006683	-0.1290002465248108	0.0330534391105175	0.07214266061782837	-0.07122087478637695	0.060574132949113846	0.14714612066745758	0.03828900307416916	0.13498127460479736	0.001506635919213295	0.08092539012432098	0.11555298417806625	-0.06403863430023193	-0.14277012646198273	0.07446333765983582	-0.059501711279153824	0.09897684305906296	-0.046976130455732346	0.12837070226669312	-0.1392257809638977	-0.010698323138058186	-0.14548435807228088	0.0931568294763565	0.10627149045467377	-0.016256773844361305	-0.06788372993469238	-0.0826084241271019	0.08123626559972763	-0.02319444715976715	-0.018582914024591446	0.05119897797703743	-0.029671015217900276	0.08837249875068665	0.07513492554426193	-0.15421973168849945	0.07081463932991028	-0.024067990481853485	-0.011786001734435558	-0.016526827588677406	-0.12905223667621613	-0.044627636671066284	-0.08382025361061096	-0.0501895435154438	-0.033956848084926605	-0.12482228130102158	-0.14553651213645935	-0.0024752551689743996	0.018462402746081352	0.14129416644573212	0.057462554425001144	0.07769013196229935	-0.12632103264331818	0.11324312537908554	0.006411742884665728	-0.15457697212696075	-0.06363438069820404	0.0786089301109314	-0.07126247882843018	-0.022041603922843933	0.02350441738963127	-0.12189558148384094	-0.13028380274772644	-0.04114944860339165	0.0974661186337471	-0.13386864960193634	0.15266349911689758	0.06868557631969452	0.14284992218017578	-0.005291007924824953	-0.10180335491895676	-0.023464282974600792	0.06122395396232605	0.050141457468271255	0.1318344622850418	0.04591565951704979	0.019676487892866135	0.022679470479488373	0.0048179118894040585	0.15095467865467072	0.11652055382728577	0.07441940158605576	-0.1067066639661789	0.0505937859416008	0.08437352627515793	0.0029331622645258904	-0.01880854181945324	-0.09449730068445206	0.14968377351760864	0.1171402856707573
Chickenpox	0.10447245091199875	0.15204472839832306	-0.04375796765089035	0.12485291808843613	0.15815608203411102	-0.08053221553564072	0.08937043696641922	0.12434707581996918	0.1091705933213234	-0.13237006962299347	-0.11447779089212418	-0.15069438517093658	-0.054572030901908875	-0.11623241752386093	0.14425000548362732	-0.11406189948320389	0.09019424021244049	0.10811140388250351	-0.02214043028652668	0.01841900497674942	0.05634762719273567	0.1400012969970703	-0.1531658172607422	-0.004255424253642559	0.036355551332235336	0.005777512677013874	0.054075442254543304	-0.08031374961137772	0.03779054060578346	0.04420190304517746	-0.10337860882282257	0.058802537620067596	-0.12504124641418457	-0.002472551306709647	0.017880383878946304	0.0390290766954422	0.06644214689731598	-0.09573034197092056	0.004180284217000008	-0.060494549572467804	0.06811186671257019	-0.0226666908711195	0.03453860431909561	0.11810731887817383	0.12262527644634247	-0.007333602290600538	-0.006823692936450243	0.0998203307390213	-0.03920072689652443	0.07399820536375046	0.15927597880363464	-0.07688477635383606	-0.12529663741588593	0.10934781283140182	-0.12835368514060974	0.041912976652383804	0.15653681755065918	0.15743574500083923	-0.07353696972131729	-0.12134698033332825	-0.06792783737182617	0.02336135134100914	0.122140072286129	-0.05503186583518982	0.13963960111141205	0.04500129446387291	-0.04022599384188652	-0.07257306575775146	0.08775743842124939	-0.14872516691684723	-0.034962840378284454	0.1393374353647232	-0.00834619253873825	0.08259005099534988	0.06850692629814148	-0.017835121601819992	0.04044873267412186	0.14883732795715332	-0.026771612465381622	-0.11145615577697754	0.05390210449695587	0.08349011838436127	-0.08071978390216827	0.0845581516623497	-0.056523874402046204	0.0289628729224205	0.0984111875295639	-0.05394020304083824	0.026044484227895737	0.015198104083538055	0.05106869339942932	-0.10048583894968033	-0.019828442484140396	0.08308122307062149	0.0710463747382164	-0.009641634300351143
Meningitis	-0.06581838428974152	-0.08955318480730057	-0.08636073768138885	-0.033278342336416245	-0.13011938333511353	-0.06850896775722504	-0.05470602586865425	0.1563476026058197	-0.14131827652454376	-0.10787510126829147	-0.052031997591257095	-0.14537949860095978	-0.001921299146488309	-0.08957485109567642	0.1613869071006775	-0.05037975311279297	0.09252740442752838	-0.08385137468576431	0.11242186278104782	-0.05843406915664673	0.15065105259418488	-0.12217484414577484	0.008034104481339455	0.09580190479755402	-0.13249841332435608	0.14682874083518982	0.15255212783813477	0.10303707420825958	-0.053413260728120804	0.10806991904973984	-0.14372971653938293	0.14461389183998108	-0.05813862010836601	0.059497326612472534	0.03226910158991814	-0.01501604076474905	-0.1340915411710739	0.04863565415143967	-0.07137377560138702	0.14927077293395996	0.04804113879799843	0.025751663371920586	-0.07114692777395248	-0.0415705181658268	-0.030920831486582756	-0.015893954783678055	0.13381339609622955	0.017625685781240463	0.14940674602985382	0.11017490923404694	0.012272804975509644	0.05846971645951271	0.12451454997062683	0.132482647895813	0.1156216487288475	0.10117661952972412	-0.11693018674850464	0.04355284199118614	0.04912305250763893	-0.04574243351817131	-0.09113051742315292	-0.0074146585538983345	-0.119743213057518	0.09544544667005539	0.07615772634744644	-0.04423580318689346	-0.03891899064183235	-0.09196696430444717	0.09504079818725586	-0.03873168304562569	-0.1574607640504837	0.1279221773147583	-0.011957263574004173	0.07760342955589294	-0.036980193108320236	-0.0783534049987793	0.14993628859519958	0.04003510624170303	0.1495463252067566	-0.002651806455105543	0.09736809879541397	-0.13123422861099243	-0.09700282663106918	-0.14801734685897827	-0.12274344265460968	-0.05704117938876152	-0.14302878081798553	0.14678417146205902	-0.12184032052755356	0.037981897592544556	-0.1562083214521408	0.07840283215045929	-0.09435752034187317	-0.039795879274606705	0.010052730329334736	0.15450263023376465
Fever	-0.025577448308467865	0.02471284568309784	0.06270191073417664	0.07581289857625961	-0.02258199080824852	-0.11923345923423767	-0.02228880487382412	-0.01566641964018345	-0.04160354658961296	-0.0662379115819931	-0.09236663579940796	0.12550470232963562	-0.0785139799118042	-0.041722722351551056	-0.09825356304645538	-0.16020280122756958	-0.09265204519033432	0.08064507693052292	-0.04740314185619354	0.0760827362537384	-0.1278744637966156	0.15180127322673798	-0.13831399381160736	0.08308485150337219	-0.03576412796974182	-0.08563083410263062	-0.07558923214673996	-0.07287701219320297	-0.06495657563209534	0.08249777555465698	-0.15827271342277527	-0.026369016617536545	0.07598578184843063	-0.07613560557365417	0.08036775887012482	0.020876893773674965	-0.019589612260460854	0.008458137512207031	0.11045999825000763	0.126021608710289	-0.07905995845794678	-0.04579567909240723	-0.10079343616962433	-0.014186202548444271	-0.03277197107672691	0.15413028001785278	0.13945409655570984	-0.11655683070421219	0.03516845777630806	-0.06630101054906845	-0.07464104145765305	-0.0042717293836176395	-0.12963268160820007	-0.1375359743833542	-0.13221175968647003	-0.01960070990025997	0.1377243846654892	-0.09090641140937805	-0.10479442775249481	-0.013116327114403248	-0.02858504094183445	0.09733168035745621	0.07974742352962494	0.15487712621688843	0.14415861666202545	-0.02867063507437706	-0.11379800736904144	-0.009951068088412285	-0.034950170665979385	-0.0734669491648674	-0.1086806058883667	0.1457005888223648	0.03567703440785408	-0.048334620893001556	0.08153197914361954	-0.08504550904035568	0.15457583963871002	0.0888928771018982	-0.14760005474090576	-0.11910764127969742	-0.1313876062631607	-0.038781993091106415	0.0066294483840465546	0.012632700614631176	0.059157658368349075	0.07156344503164291	-0.1119312196969986	-0.10751311480998993	0.07251578569412231	-0.01805156096816063	0.047674510627985	0.07825291156768799	0.029148831963539124	0.01208407897502184	-0.11326062679290771	0.11828590929508209
Sepsis	0.1333875209093094	0.015015476383268833	-0.013415160588920116	-0.13738392293453217	-0.025544025003910065	-0.13613520562648773	0.05901193618774414	0.04195290058851242	-0.10169205814599991	-0.15463805198669434	0.1444268375635147	0.05059667304158211	-0.15822440385818481	0.10696588456630707	0.021978816017508507	-0.07676646113395691	-0.0652041807770729	0.1263873130083084	-0.052723124623298645	-0.02762751281261444	-0.1564408540725708	-0.02088116481900215	-0.13493871688842773	0.09290319681167603	-0.06303317844867706	-0.06811836361885071	-0.06099075451493263	0.06452202796936035	0.08249027281999588	0.0868508368730545	0.13516530394554138	0.09232760965824127	0.09097418189048767	-0.0956779271364212	-0.05182017758488655	0.04345273599028587	0.07193154841661453	0.06146238371729851	-0.059741489589214325	0.00093704933533445	0.06693946570158005	-0.08078407496213913	-0.014891755767166615	-0.13615748286247253	0.04888571798801422	0.008519408293068409	-0.07591857016086578	-0.06042451411485672	0.036727920174598694	-0.052116118371486664	-0.011795926839113235	0.11133099347352982	0.009121346287429333	0.13451527059078217	-0.04560115560889244	0.07681678235530853	-0.014052558690309525	-0.05526641383767128	-0.08807418495416641	-0.08226717263460159	-0.15860231220722198	-0.012959788553416729	0.08041538298130035	0.12776444852352142	-0.10899751633405685	-0.0660598948597908	-0.05985122174024582	-0.11553694307804108	-0.13056407868862152	-0.15077048540115356	0.01418974343687296	-0.11897668242454529	0.02957339584827423	-0.15734444558620453	-0.1052389070391655	-0.05137402191758156	-0.014724165201187134	0.04818427935242653	0.0631861463189125	-0.02373870648443699	-0.028649169951677322	-0.12852051854133606	-0.08169425278902054	0.01991308480501175	0.11952269077301025	0.11345890164375305	0.03379352018237114	0.0064603714272379875	0.1138208732008934	0.044949259608983994	0.11401788145303726	-0.1379452645778656	-0.03068551793694496	-0.14141586422920227	0.05581742525100708	0.008194666355848312
Confusion	0.114453986287117	0.0492842011153698	0.13972623646259308	-0.03732813894748688	-0.13945865631103516	0.1541919857263565	-0.020141644403338432	-0.09494820237159729	0.11679942905902863	-0.0321931466460228	0.1542469561100006	-0.15435372292995453	-0.020795408636331558	-0.039492808282375336	-0.13268005847930908	-0.1235252246260643	-0.014930592849850655	-0.06800291687250137	-0.03621992841362953	0.05318185314536095	0.07692880928516388	-0.034934625029563904	0.06253203749656677	-0.14034655690193176	-0.05433163791894913	0.04140833020210266	-0.09133586287498474	-0.1427268534898758	0.12233319133520126	-0.15549984574317932	-0.15838314592838287	-0.012581642717123032	-0.06989508867263794	-0.021458150818943977	0.0987040102481842	-0.14255161583423615	-0.10609104484319687	-0.1132037341594696	-0.06760535389184952	-0.002983987331390381	-0.052237238734960556	0.02082434482872486	0.1157534122467041	-0.14713968336582184	0.0384177602827549	0.10557905584573746	-0.023760301992297173	-0.07414917647838593	-0.06744316220283508	0.0417996421456337	0.02082863822579384	-0.06388719379901886	0.020282013341784477	0.029258834198117256	0.1545141339302063	0.08718276023864746	-0.07394282519817352	-0.11862121522426605	-0.0949731320142746	-0.11780107021331787	-0.011385608464479446	-0.06781744956970215	-0.009211705066263676	-0.07879128307104111	0.08874630182981491	0.0691489651799202	0.034638457000255585	-0.0421953983604908	0.007110636215656996	-0.08019904047250748	0.060897327959537506	0.0888856053352356	0.05819433555006981	0.022519024088978767	-0.10880417376756668	0.13153283298015594	0.034245580434799194	0.04900256544351578	-0.025178764015436172	-0.10923367738723755	0.07281546294689178	0.14628112316131592	-0.1526489108800888	0.14421480894088745	-0.14866039156913757	0.06542104482650757	-0.069233238697052	-0.13855202496051788	-0.14903901517391205	-0.14277341961860657	-0.1375420093536377	-0.04645942896604538	0.135684072971344	0.03219927102327347	0.15140046179294586	0.15365809202194214
Asthma	-0.08339974284172058	0.055039454251527786	-0.0888596624135971	-0.045791976153850555	-0.028387829661369324	0.0976707711815834	-0.15733034908771515	-0.13916482031345367	-0.013989284634590149	-0.12987922132015228	-0.10778511315584183	-0.053314436227083206	0.11056020110845566	0.0632191002368927	0.0013598424848169088	0.05832943320274353	0.027280116453766823	-0.13099244236946106	0.051175668835639954	-0.01800951361656189	0.05717518925666809	0.13405050337314606	-0.13436393439769745	0.1149304211139679	-0.005053727421909571	-0.06287816166877747	-0.10785210877656937	0.06779364496469498	-0.12761637568473816	0.06169965863227844	0.10983186215162277	0.14452841877937317	0.026657236739993095	0.08516808599233627	0.07928495854139328	-0.10253570973873138	-0.13657769560813904	0.08739730715751648	-0.07803626358509064	-0.14367948472499847	0.0085801025852561	-0.026842009276151657	-0.10295458883047104	-0.09794990718364716	-0.1475302278995514	0.00601961649954319	-0.140991672873497	0.11527527868747711	-0.05589026212692261	-0.08693339675664902	0.012514052912592888	0.06343855708837509	-0.062318816781044006	-0.09387727826833725	0.026774059981107712	-0.12939724326133728	0.12021726369857788	0.12769335508346558	-0.06969065964221954	-0.157660573720932	-0.008183253929018974	0.04019670560956001	-0.15278322994709015	-0.02667853981256485	-0.14319320023059845	0.15616782009601593	0.10238376259803772	0.07173005491495132	-0.12357896566390991	0.1497446447610855	-0.1107185035943985	0.0423654243350029	0.04725613072514534	-0.1057959571480751	-0.018659841269254684	0.07419644296169281	-0.10005217790603638	-0.04735095053911209	0.12523415684700012	-0.08565548062324524	0.13251720368862152	0.14130249619483948	-0.02721504494547844	-0.016867736354470253	0.1242380440235138	0.03732198849320412	0.029119785875082016	-0.08224033564329147	-0.06552039831876755	-0.005843882914632559	-0.11507885903120041	-0.07110387831926346	0.02945152297616005	-0.1352129876613617	0.05351068824529648	0.1360051929950714
COPD	-0.07064534723758698	0.05231760814785957	-0.13869744539260864	-0.041637223213911057	0.08763867616653442	0.05247795209288597	-0.09763406962156296	0.15315455198287964	0.11173354834318161	-0.03940876945853233	-0.04888315871357918	-0.14375843107700348	0.012036805041134357	0.15490059554576874	-0.12598104774951935	0.09107434004545212	0.06016682833433151	0.0573214516043663	-0.029661649838089943	0.13374941051006317	0.12143421918153763	0.09962929785251617	-0.10124262422323227	0.026028968393802643	-0.05975917726755142	-0.08914946019649506	0.09109221398830414	-0.045539118349552155	-0.0009990986436605453	0.16297182440757751	0.058819666504859924	-0.042440395802259445	0.06997489929199219	-0.05470062047243118	0.102071613073349	0.061385829001665115	-0.1509247124195099	0.06946953386068344	-0.13691779971122742	-0.09210000187158585	0.0776827484369278	-0.11882027983665466	0.07487140595912933	-0.06864701956510544	-0.11595391482114792	-0.0621606707572937	0.1007474884390831	0.007212591357529163	-0.02503880113363266	0.06800173968076706	0.06878408789634705	0.03672800213098526	0.1522618979215622	-0.056584425270557404	0.06591520458459854	-0.029173530638217926	0.05761454999446869	0.06045699492096901	0.05206407234072685	0.11758437752723694	-0.06812337040901184	-0.10320675373077393	0.015858611091971397	0.04891015961766243	-0.06726528704166412	-0.09001185745000839	-0.06196358799934387	-0.050340622663497925	-0.16363219916820526	-0.14294786751270294	-0.1411573588848114	0.15297450125217438	0.08070340007543564	-0.14848463237285614	0.14120450615882874	-0.03649987652897835	-0.049682483077049255	-0.07048457115888596	0.018993718549609184	0.08824083209037781	-0.1522468775510788	0.0967775359749794	-0.046426381915807724	-0.1479691118001938	0.07435180246829987	-0.13494138419628143	-0.07515566051006317	-0.12373977154493332	-0.13747134804725647	-0.00975603237748146	0.043121129274368286	0.1478549987077713	0.038480933755636215	0.06649981439113617	0.06739974021911621	-0.02366439253091812
Hay_Fever	0.07157335430383682	-0.026489799842238426	-0.09079615026712418	0.07135970145463943	0.05512936785817146	0.13563384115695953	0.13298176229000092	0.06249987334012985	0.013500254601240158	0.09759186208248138	0.1231626495718956	0.07860327512025833	-0.022886143997311592	-0.14770478010177612	-0.08056634664535522	-0.09416421502828598	-0.06029469892382622	-0.0074971746653318405	-0.1452043503522873	0.16075530648231506	-0.06795519590377808	0.1271018385887146	-0.11527568101882935	-0.044186804443597794	-0.10317722707986832	0.10047335922718048	0.12080822885036469	0.015066116116940975	0.035436466336250305	-0.12115725874900818	0.0822443962097168	-0.09048473089933395	-0.10762589424848557	0.13545668125152588	-0.1403552144765854	0.013601002283394337	-0.015951691195368767	0.1372673064470291	0.09853730350732803	0.027565009891986847	0.030666442587971687	-0.09201109409332275	0.11765923351049423	-0.04351574182510376	0.07091650366783142	-0.0584428496658802	-0.1306782215833664	-0.14227505028247833	-0.024399416521191597	-0.14865508675575256	0.042611151933670044	-0.10530733317136765	-0.05685553327202797	0.14206179976463318	0.06816186010837555	0.09183380007743835	0.15404999256134033	0.15120457112789154	0.06325452029705048	0.12709374725818634	0.11603634059429169	-0.020733145996928215	-0.06711246073246002	0.05182434991002083	-0.04560058191418648	0.11429517716169357	-0.019817350432276726	-0.09336108714342117	-0.014532854780554771	-0.13210241496562958	-0.1507679522037506	0.019343797117471695	0.0036788489669561386	-0.14505338668823242	-0.02069275826215744	0.02589472569525242	0.06891079992055893	0.04244329407811165	0.059375032782554626	-0.11029060930013657	0.12096916884183884	0.007357975002378225	0.1266622394323349	0.043937746435403824	0.03895995765924454	-0.025256114080548286	0.1285357028245926	0.1382114589214325	-0.09209749847650528	0.10748955607414246	-0.07217083871364594	-0.0677793025970459	0.08950170874595642	0.11310439556837082	0.12929052114486694	-0.032109059393405914
Itchy_Eyes	0.08997781574726105	0.11853928864002228	-0.0018533196998760104	0.057481054216623306	0.1309759020805359	0.04817383736371994	0.02663123421370983	0.132206529378891	-0.10053718835115433	-0.05546722561120987	-0.15847082436084747	0.059366676956415176	-0.1459333896636963	-0.03959088772535324	0.14644736051559448	-0.03859831392765045	0.07142645865678787	0.0801260769367218	-0.039526306092739105	0.10185578465461731	0.1384570449590683	-0.09306667000055313	0.12184465676546097	-0.07015588879585266	-0.11918642371892929	-0.006342197768390179	-0.012635878287255764	0.09147263318300247	0.06303029507398605	0.052020084112882614	0.04500174522399902	-0.13046394288539886	-0.012551452033221722	-0.008598660118877888	0.03081711381673813	-0.09766808897256851	-0.0405559279024601	-0.05635493993759155	-0.10272149741649628	-0.0566871352493763	0.062304459512233734	0.03126302361488342	0.1495182365179062	0.04521872475743294	-0.15221764147281647	-0.09536287188529968	0.023707443848252296	-0.03199340030550957	0.14323891699314117	-0.00548140425235033	-0.10835040360689163	-0.009296277537941933	-0.06890970468521118	0.07018573582172394	-0.04641790688037872	0.020427724346518517	-0.14744539558887482	-0.05795595049858093	0.1527038812637329	0.002639935351908207	0.1186494380235672	-0.09342242777347565	-0.04146210104227066	-0.11103004962205887	-0.1333935409784317	0.08608827739953995	0.010582661256194115	0.10584024339914322	0.14359889924526215	-0.0904422178864479	-0.14940454065799713	0.06712719798088074	0.15008607506752014	0.1331748217344284	-0.023651542142033577	0.12798485159873962	-0.044926874339580536	-0.04529282823204994	-0.08289368450641632	-0.08914297819137573	0.06536674499511719	-0.04534084349870682	0.0966552346944809	-0.0806572362780571	-0.15108606219291687	-0.08303382992744446	0.01903318241238594	-0.022616343572735786	0.04982363060116768	-0.012177198193967342	-0.11351929605007172	0.1349077969789505	-0.10164002329111099	-0.010864531621336937	0.1402851641178131	-0.09894191473722458
Pulmonary_Edema	-0.153516486287117	0.040931642055511475	-0.07785279303789139	0.0729181170463562	-0.09838589280843735	-0.06539417058229446	-0.1381361037492752	-0.13746130466461182	0.000034864176996052265	0.12825420498847961	0.05048331990838051	-0.008079751394689083	0.026181546971201897	0.06627071648836136	-0.07641942799091339	0.09398893266916275	0.060414478182792664	-0.12039999663829803	0.013825276866555214	-0.10939088463783264	-0.12530101835727692	0.007542611099779606	-0.014803186058998108	-0.06556128710508347	-0.01406872272491455	-0.10874757915735245	-0.11675482988357544	0.14775611460208893	0.08241838216781616	-0.14885440468788147	0.07496637850999832	-0.04477184638381004	0.04676308482885361	0.13521480560302734	-0.030765710398554802	-0.0513363778591156	-0.017384953796863556	0.027649929746985435	0.11714483797550201	-0.06720036268234253	0.04594629257917404	0.1163884699344635	-0.0532354861497879	0.044474612921476364	0.02934962324798107	-0.15777267515659332	0.12368336319923401	0.024384547024965286	-0.0975513681769371	-0.03290393203496933	0.09395016729831696	0.01686636544764042	-0.1490577906370163	0.014675780199468136	-0.049887899309396744	-0.09082160145044327	0.01357182301580906	-0.02469446137547493	0.10107949376106262	0.041176874190568924	-0.09528066217899323	0.16072776913642883	-0.02103211171925068	0.04048006609082222	-0.0806717574596405	0.07826050370931625	0.041142478585243225	0.08968457579612732	-0.14948050677776337	0.04929257556796074	0.06285960227251053	-0.03948171064257622	-0.1292647272348404	0.07024329155683517	0.09989730268716812	-0.10452649742364883	-0.04704563319683075	0.07214067876338959	-0.044554922729730606	0.014043252915143967	0.09820233285427094	0.06603359431028366	0.10593901574611664	0.026519473642110825	-0.0021456603426486254	-0.12688162922859192	-0.14036813378334045	0.016114767640829086	-0.03752977028489113	-0.005456799175590277	0.04327041283249855	-0.09157887101173401	0.05341915413737297	0.018666548654437065	-0.02116904780268669	-0.06662717461585999
Pulmonary_Fibrosis	-0.0564325787127018	-0.14861071109771729	-0.009920223616063595	0.00788835622370243	-0.14639391005039215	0.0041693635284900665	0.05479368567466736	0.013059409335255623	0.0061864908784627914	-0.15427131950855255	0.05429452285170555	0.04128921404480934	-0.15373031795024872	-0.10585585981607437	-0.07477784901857376	0.10714703798294067	-0.13992060720920563	0.12593989074230194	-0.04325135052204132	0.1550573855638504	-0.03832677751779556	-0.0203405674546957	0.051578421145677567	-0.10812051594257355	0.11416929215192795	0.13413213193416595	-0.14902471005916595	0.13206498324871063	-0.13534659147262573	0.004852201323956251	0.1573706567287445	0.039206575602293015	0.0874541699886322	-0.0696754902601242	-0.11652375757694244	0.0629984438419342	0.051512256264686584	-0.1535683274269104	0.03470594063401222	0.0635504424571991	-0.00919798668473959	-0.13127483427524567	0.06979908794164658	-0.03820238634943962	-0.10668061673641205	0.0329347588121891	0.147943913936615	0.03558731451630592	0.0712655708193779	0.01727983169257641	0.13110285997390747	-0.02029484510421753	-0.14222843945026398	0.14169548451900482	-0.10894747078418732	-0.051972001791000366	-0.15721900761127472	-0.1532745361328125	0.10603808611631393	0.04871571063995361	0.021125292405486107	-0.07727042585611343	0.10814376920461655	0.09348087012767792	-0.037099823355674744	-0.0832943245768547	-0.042086053639650345	0.014381344430148602	-0.0711076408624649	0.03876417502760887	-0.07499932497739792	0.14461961388587952	-0.1387479305267334	0.11858426034450531	-0.013128146529197693	0.015396829694509506	0.16355781257152557	-0.05668887123465538	0.1363660991191864	-0.010044916532933712	-0.13256603479385376	0.0403657890856266	-0.16040213406085968	-0.07269594818353653	-0.04596421495079994	-0.11187689751386642	-0.040694162249565125	-0.10733787715435028	-0.03963952511548996	-0.08957038819789886	0.12145914137363434	-0.14614564180374146	-0.1263347715139389	0.14355069398880005	0.09637033194303513	-0.06518774479627609
Dry_Cough	0.08391076326370239	0.07787945866584778	-0.11073355376720428	0.1272822767496109	-0.03815969079732895	-0.11960271000862122	0.07813002169132233	0.003594696754589677	0.07196228951215744	0.09905900806188583	-0.1373450756072998	0.02654251642525196	-0.07284315675497055	0.14273597300052643	-0.022885676473379135	0.1049467995762825	0.15780051052570343	0.09211088716983795	0.10248100012540817	-0.15022428333759308	-0.11954279243946075	-0.07202798873186111	-0.05920188128948212	0.1613130420446396	0.14222636818885803	0.14496241509914398	0.07463989406824112	-0.061700284481048584	-0.09815829992294312	0.15507535636425018	-0.12149250507354736	-0.001260003075003624	0.08587618172168732	-0.035667117685079575	-0.12009219825267792	-0.13325825333595276	0.08825339376926422	0.15038487315177917	0.038832563906908035	0.15449635684490204	-0.12244078516960144	0.007772198412567377	0.09603661298751831	-0.06648916751146317	0.061594970524311066	-0.08402231335639954	0.12012102454900742	-0.09787473827600479	-0.09922870993614197	0.14826466143131256	-0.09020458906888962	-0.03397278115153313	0.041680123656988144	-0.10700974613428116	0.11919766664505005	-0.0182651299983263	0.09185420721769333	-0.13967858254909515	0.09024915844202042	-0.15648753941059113	0.05996048450469971	-0.13207808136940002	0.011183679103851318	0.10172749310731888	-0.09190927445888519	0.16167926788330078	0.12732146680355072	0.03935182839632034	0.15510031580924988	-0.012490003369748592	0.09795139729976654	-0.07689143717288971	0.0928521454334259	-0.07733920216560364	0.12610501050949097	0.07205594331026077	-0.10753658413887024	0.019949834793806076	0.05370452627539635	-0.1338794082403183	-0.12483687698841095	0.10343226045370102	-0.1577027142047882	-0.09538716822862625	-0.039457645267248154	0.12894347310066223	-0.12824881076812744	-0.08892796188592911	-0.04675385355949402	0.09963124990463257	-0.05700841546058655	0.14745357632637024	0.09453477710485458	0.11273106187582016	-0.10678042471408844	0.10920634120702744
Sleep_Apnea	-0.026884684339165688	-0.14640302956104279	0.025234313681721687	-0.09033828973770142	0.057793110609054565	-0.1107093021273613	0.13976621627807617	-0.044736526906490326	-0.1320500522851944	0.14260916411876678	-0.12267009168863297	-0.0659448578953743	-0.14601550996303558	0.13414214551448822	-0.06630086898803711	-0.07284734398126602	-0.07456468045711517	-0.13931813836097717	-0.029884090647101402	0.019660353660583496	0.11951321363449097	-0.15605828166007996	0.1192772313952446	0.006445819046348333	-0.05988363176584244	0.055916983634233475	-0.012110215611755848	0.08238574862480164	-0.04268329218029976	0.07620543241500854	-0.13260985910892487	0.01986435428261757	-0.061445772647857666	-0.021370310336351395	0.08169607073068619	0.15220236778259277	0.020251844078302383	-0.035470541566610336	-0.08645278960466385	-0.12575457990169525	-0.04157250374555588	-0.09888292849063873	-0.012966623529791832	-0.010838894173502922	0.14884918928146362	-0.14029568433761597	-0.15683673322200775	-0.09255263954401016	-0.1581893116235733	-0.0691959336400032	0.0882868692278862	-0.04498012363910675	-0.05270308256149292	0.060791436582803726	-0.013313165865838528	0.1571597158908844	-0.03826176002621651	0.07381542772054672	0.09040019661188126	0.005942234769463539	-0.0413045659661293	0.13951921463012695	0.0010626836447045207	-0.1095719039440155	0.0464702732861042	-0.018654251471161842	-0.054615698754787445	-0.04168478399515152	0.0934276133775711	-0.09705570340156555	-0.03617905452847481	0.038659270852804184	-0.03989795967936516	-0.06315159052610397	0.0013645556755363941	0.08196330815553665	0.045136041939258575	-0.07385987043380737	0.10968908667564392	-0.13755320012569427	-0.12275208532810211	-0.052537862211465836	-0.10084879398345947	0.157273069024086	0.10599928349256516	0.04902052506804466	-0.047912564128637314	-0.11083991080522537	0.11645812541246414	-0.0024218896869570017	0.14183276891708374	0.01660016179084778	-0.014393476769328117	-0.006223499774932861	-0.10555077344179153	0.06370580941438675
Amoxicillin	0.15544183552265167	-0.13018366694450378	-0.12637144327163696	-0.011932865716516972	0.10150708258152008	0.02602788247168064	-0.12041263282299042	-0.08537089079618454	-0.15799281001091003	-0.05420313775539398	-0.11783602833747864	-0.12814022600650787	0.12154347449541092	-0.035875119268894196	-0.08952981978654861	-0.030551863834261894	-0.14385688304901123	0.11935767531394958	0.15622654557228088	-0.050194770097732544	0.13204790651798248	0.018656006082892418	-0.011483843438327312	0.10372266173362732	-0.08250978589057922	0.15647174417972565	0.06405957788228989	-0.1213269978761673	-0.16336514055728912	-0.021045546978712082	-0.06129833683371544	-0.006813637912273407	0.09576749056577682	0.030117802321910858	0.09867268055677414	0.12557464838027954	-0.03399282321333885	-0.0972660556435585	0.07445990294218063	-0.14075298607349396	0.1477270871400833	0.0879657045006752	-0.13031603395938873	-0.14917345345020294	0.15194551646709442	0.037830594927072525	-0.05895492061972618	0.0678359866142273	0.1252719908952713	0.0823979601264	0.06507556140422821	-0.047978874295949936	0.10973219573497772	0.04886721074581146	-0.07439760118722916	0.08049717545509338	0.04098758101463318	-0.007253204006701708	0.0021301256492733955	-0.02006402239203453	-0.13632865250110626	-0.06270549446344376	0.11136174201965332	-0.12048537284135818	0.07968085259199142	-0.03778919205069542	-0.064759261906147	0.0304906964302063	0.07879012078046799	0.1511726975440979	-0.023028798401355743	-0.029491858556866646	-0.08418019860982895	-0.08001994341611862	-0.06509586423635483	0.10783974826335907	0.14030134677886963	-0.07585214823484421	-0.0857405737042427	0.14498819410800934	-0.060217950493097305	-0.04427773505449295	0.03348516672849655	-0.08998900651931763	0.05867970734834671	0.037301961332559586	0.08812713623046875	-0.08817743510007858	-0.11757310479879379	-0.051697369664907455	-0.03227921202778816	0.02897440269589424	0.0526043139398098	0.14895644783973694	-0.15725192427635193	-0.04415697976946831
Azithromycin	-0.13145174086093903	-0.1587085723876953	-0.022848252207040787	-0.06007547304034233	-0.1532963365316391	0.09303989261388779	0.06257498264312744	0.06700583547353745	-0.08112406730651855	0.010422933846712112	-0.10733530670404434	0.05013691633939743	0.11124321818351746	0.13363315165042877	0.08542554825544357	0.09675627201795578	-0.10237304866313934	-0.009143278002738953	-0.11429256200790405	-0.04346601665019989	-0.017022715881466866	0.08139006793498993	-0.047592177987098694	-0.10930704325437546	-0.021421246230602264	0.09662345796823502	-0.023678110912442207	-0.12221921235322952	0.10841146856546402	-0.14265085756778717	-0.0871339961886406	0.1214253380894661	0.006945538334548473	-0.09646159410476685	0.15669341385364532	0.07642842829227448	0.07091694325208664	-0.08176098018884659	0.10667742788791656	0.05626484379172325	0.07729943096637726	0.049446649849414825	0.13846582174301147	-0.04528387263417244	-0.10375767201185226	0.10493092983961105	0.06765344738960266	0.12599606812000275	-0.037973176687955856	0.029720326885581017	-0.05654959753155708	0.1501900553703308	-0.1310863047838211	-0.06665277481079102	-0.06282857805490494	0.13553935289382935	0.01660207472741604	0.011307009495794773	0.019292160868644714	0.050825800746679306	0.04755173623561859	0.12237884104251862	0.13192805647850037	-0.056720070540905	0.10708759725093842	-0.10888336598873138	0.07652386277914047	-0.035958193242549896	-0.01439105998724699	-0.030735496431589127	-0.007489134557545185	0.04030614346265793	0.08595537394285202	0.04537265747785568	0.13623692095279694	0.01001795008778572	0.10550843924283981	-0.015529511496424675	0.0676090270280838	-0.04544350504875183	-0.05719418078660965	-0.0054332185536623	0.12249770760536194	-0.08947858214378357	0.09102973341941833	-0.14904527366161346	0.05039159581065178	0.015234863385558128	0.0636259987950325	0.11712779849767685	-0.043826863169670105	-0.03152216970920563	-0.15817509591579437	0.018730342388153076	-0.14635533094406128	0.0354035384953022
Doxycycline	0.16083964705467224	-0.11308665573596954	0.08754555135965347	-0.017627693712711334	-0.046738892793655396	0.07338657975196838	0.11558744311332703	0.04659627377986908	0.14168493449687958	0.07232608646154404	0.13948166370391846	0.09617285430431366	0.13127869367599487	0.0005705285584554076	-0.057847779244184494	0.035245511680841446	0.13688917458057404	0.14321322739124298	0.0944429486989975	0.04138782620429993	-0.14219288527965546	0.0005177682614885271	-0.10108882933855057	-0.12784646451473236	-0.04250381141901016	0.1549362987279892	0.08854693919420242	0.024886567145586014	0.04714231938123703	-0.07019240409135818	0.03165792301297188	0.1568164974451065	0.05555301532149315	0.0714118704199791	0.07966247946023941	-0.022580837830901146	-0.011931514367461205	0.08458489924669266	-0.0057208058424293995	-0.02616894245147705	-0.048059046268463135	0.008488467894494534	0.10756382346153259	0.11559000611305237	-0.08745022118091583	-0.11673463881015778	-0.020563321188092232	0.06739621609449387	0.0907154381275177	0.021031111478805542	-0.1012231633067131	0.008947900496423244	0.10612627118825912	-0.04039692133665085	-0.07445427030324936	-0.10183965414762497	-0.032637517899274826	-0.1064494252204895	0.14057208597660065	0.11245524138212204	0.002278500236570835	-0.1187518835067749	0.05533493310213089	-0.035008594393730164	-0.1010381430387497	-0.10034669190645218	0.004816088825464249	0.09341417253017426	0.023845352232456207	-0.14206856489181519	0.1292201578617096	-0.018524637445807457	-0.1282256841659546	0.01747576706111431	0.05412611365318298	0.04171932488679886	-0.07336606830358505	0.0491691529750824	0.08754579722881317	-0.13284538686275482	0.05641252174973488	0.015314086340367794	0.06005600467324257	0.07181582599878311	0.1450052410364151	0.1254301816225052	-0.023002244532108307	0.042697351425886154	0.06941255927085876	-0.04469563812017441	-0.1337042897939682	0.045407697558403015	0.09323423355817795	0.05385911464691162	-0.004420814570039511	-0.1371648907661438
Acne	-0.02786375768482685	-0.04244490712881088	-0.03579912707209587	-0.13415740430355072	-0.11142771691083908	0.0796407088637352	-0.05393762141466141	0.025135347619652748	0.018444761633872986	-0.1024019867181778	-0.01358743105083704	0.07567752152681351	0.11353752762079239	-0.14448870718479156	-0.15924884378910065	-0.0051063308492302895	0.12229660153388977	-0.000732012209482491	0.0985013097524643	0.08132249116897583	-0.007886167615652084	-0.07539597898721695	0.029860446229577065	0.12503640353679657	-0.09358050674200058	-0.001975424587726593	-0.0027489138301461935	-0.11054752767086029	0.1292242407798767	-0.14841437339782715	-0.081385038793087	-0.007280724588781595	-0.08847558498382568	-0.15993313491344452	0.02080048993229866	0.1266200691461563	-0.098404161632061	-0.15249352157115936	-0.04126575589179993	0.024562083184719086	0.040952540934085846	-0.16270071268081665	-0.13788995146751404	0.033808205276727676	0.052600398659706116	0.003177964361384511	0.04690983518958092	-0.133061021566391	0.1099001094698906	-0.10389868170022964	-0.14450609683990479	0.014162982814013958	0.11665411293506622	0.06797906011343002	-0.04182233661413193	-0.15059418976306915	0.009476798586547375	-0.054376404732465744	0.09552611410617828	0.07457141578197479	-0.0771292895078659	0.008582068607211113	0.14580419659614563	0.12163078784942627	0.07037179917097092	0.13142085075378418	0.0032736933790147305	0.07215659320354462	-0.03980828821659088	0.08773882687091827	0.10981836915016174	-0.049970466643571854	-0.10179012268781662	0.002022115746513009	0.15920986235141754	0.009586474858224392	-0.13576734066009521	-0.12215996533632278	-0.15405181050300598	0.06358648091554642	0.06022394448518753	-0.036688193678855896	0.048292845487594604	-0.1321088820695877	-0.01314312033355236	0.011710020713508129	0.08549784868955612	0.07380746304988861	0.13463792204856873	-0.08325336873531342	-0.009648097679018974	0.13269303739070892	-0.11598023027181625	0.04732721298933029	-0.13452531397342682	0.16128243505954742
Ciprofloxacin	-0.08565326780080795	0.06913389265537262	-0.008875624276697636	0.08185933530330658	-0.11691852658987045	-0.09150456637144089	0.11875274032354355	-0.07068119943141937	0.09065209329128265	-0.14112375676631927	-0.14370450377464294	0.05508195236325264	-0.03816913440823555	-0.046857234090566635	0.06803009659051895	0.09568554908037186	-0.001135883154347539	-0.09431277960538864	-0.1578439325094223	0.022425642237067223	0.0207106601446867	-0.1386495679616928	-0.1435011625289917	-0.012903391383588314	0.15408462285995483	-0.04490135237574577	-0.1465989351272583	0.13256977498531342	-0.029079535976052284	0.08369600772857666	0.0435342937707901	0.11010543256998062	0.013429823331534863	0.15299998223781586	-0.09067709743976593	-0.07236865907907486	-0.0996856614947319	0.09261387586593628	-0.0208110548555851	-0.07492373883724213	-0.08854787796735764	0.04512536898255348	-0.09738083183765411	-0.000280217471299693	0.07686963677406311	-0.020749857649207115	-0.0014612680533900857	0.0811946839094162	0.007580159697681665	0.09496766328811646	-0.02807249315083027	-0.08717310428619385	0.053514569997787476	-0.0160809513181448	-0.0809384435415268	0.1523815393447876	0.09622622281312943	0.12147132307291031	-0.00523608410730958	-0.00898308027535677	0.05408011004328728	0.1393611878156662	-0.08174178749322891	0.12098848819732666	0.04163896292448044	-0.15271279215812683	-0.07482162117958069	0.07286994904279709	0.055987436324357986	-0.10245034098625183	0.10130097717046738	0.11199656873941422	0.09213493764400482	0.059677235782146454	0.09460583329200745	0.06512438505887985	0.09568841010332108	-0.07878734916448593	0.06922702491283417	0.11838556826114655	-0.15093180537223816	-0.10982067883014679	-0.0753740444779396	0.12984327971935272	0.12970800697803497	0.06634948402643204	0.032835863530635834	-0.16029807925224304	-0.04518400505185127	0.02797999605536461	-0.13888956606388092	-0.04849845543503761	-0.12751460075378418	-0.027344008907675743	-0.06278524547815323	0.08433517813682556
Bacterial_Infection	-0.11400507390499115	-0.08918965607881546	0.014127287082374096	0.14175666868686676	-0.14007841050624847	0.05807637795805931	0.06336366385221481	0.09239894151687622	-0.14410366117954254	-0.08946188539266586	-0.08807241916656494	0.14743778109550476	-0.08095420151948929	0.018825529143214226	0.11029911041259766	0.08194094151258469	0.011698438785970211	-0.08582408726215363	-0.12831933796405792	-0.058502260595560074	0.10175471007823944	-0.1503390371799469	0.09513852000236511	-0.068141408264637	-0.1550210416316986	-0.1322392374277115	0.011383905075490475	-0.04400203004479408	0.05384063348174095	-0.05235617607831955	0.0914393961429596	0.12865673005580902	0.1605173945426941	-0.04442503675818443	0.10590893030166626	0.05691226199269295	0.11087483167648315	-0.02160600572824478	-0.0861639752984047	0.06194775924086571	-0.0730394572019577	0.13122668862342834	-0.0589931458234787	0.07225687056779861	-0.11222950369119644	0.05623101443052292	-0.05156056582927704	-0.0023118657991290092	0.11844392865896225	-0.06657186150550842	0.11873095482587814	0.15200158953666687	-0.12034548074007034	-0.03102501854300499	-0.006614780984818935	-0.14994864165782928	-0.024255506694316864	-0.03848506510257721	-0.13346923887729645	-0.08539503067731857	0.07192731648683548	0.014140499755740166	0.09089572727680206	0.10246499627828598	-0.08094378560781479	0.02167617715895176	0.09536653012037277	-0.15682731568813324	0.12485615164041519	0.1451902687549591	0.04762779176235199	0.0794912576675415	-0.09616076201200485	0.02838808111846447	0.011777718551456928	0.12424428761005402	0.030661746859550476	0.022820858284831047	-0.11248116195201874	0.04738859087228775	-0.020805872976779938	0.05833509564399719	-0.004798845387995243	0.11113248765468597	-0.02072560414671898	-0.036029066890478134	0.048088762909173965	0.061783790588378906	0.1423453837633133	0.14430652558803558	-0.08485516160726547	0.10714323818683624	0.06878652423620224	0.008599936962127686	0.12679216265678406	-0.003164872294291854
Acyclovir	0.1525341272354126	0.04888160526752472	0.053746163845062256	0.10452365130186081	0.1286788433790207	0.02196613885462284	-0.03938397392630577	0.08744867891073227	0.16060706973075867	-0.13524071872234344	-0.01571236178278923	0.095057412981987	-0.15477675199508667	0.09149812161922455	0.14639079570770264	0.0058179558254778385	0.15711306035518646	-0.05606253072619438	0.05291599780321121	-0.09501416236162186	0.09424515813589096	-0.049883950501680374	0.0381627082824707	-0.03707505762577057	0.08712749183177948	0.15600018203258514	0.01656089909374714	0.15432630479335785	0.08486706018447876	0.08489753305912018	0.00027532019885256886	-0.00861023273319006	0.08997122198343277	-0.01753704994916916	-0.11352134495973587	-0.14833781123161316	0.06687536835670471	0.03078426606953144	0.08161693066358566	-0.09315212815999985	-0.16183672845363617	0.10535211116075516	0.027171319350600243	0.14274486899375916	-0.046637408435344696	0.09703031182289124	0.09607581049203873	-0.01486715767532587	-0.09453343600034714	-0.06720907986164093	0.08658105134963989	0.03017132729291916	0.03181358799338341	-0.025611162185668945	0.09154418110847473	0.14268538355827332	0.14644169807434082	0.0012495502596721053	0.04714800789952278	0.08451683819293976	0.1365329623222351	-0.06614997237920761	-0.11506099253892899	-0.012190962210297585	-0.11907914280891418	-0.1450742781162262	0.03403608500957489	-0.14238592982292175	-0.000912612653337419	0.1456862986087799	0.1058628261089325	-0.04180118814110756	0.08972910791635513	-0.04741237685084343	0.10527744144201279	-0.019977673888206482	0.11122184246778488	0.0580936074256897	0.1554308533668518	-0.1313367486000061	-0.037516381591558456	0.13098353147506714	0.1325281411409378	-0.09810693562030792	0.12578809261322021	-0.008659126237034798	-0.06047258526086807	0.13614699244499207	-0.09668458253145218	-0.10616861283779144	0.14058512449264526	-0.07153420150279999	0.1525576263666153	-0.08302149921655655	-0.08866577595472336	0.05205344036221504
Emtricitabine	0.04067577049136162	-0.05159877613186836	0.10984653234481812	0.14183014631271362	-0.03222821652889252	0.13752955198287964	0.10785062611103058	-0.14185097813606262	-0.1150214821100235	0.0664094015955925	-0.07481780648231506	-0.018690044060349464	-0.00799032673239708	0.014295291155576706	-0.04630211740732193	0.0719505101442337	0.02221524342894554	0.14479896426200867	-0.024028850719332695	0.10237297415733337	-0.045120980590581894	-0.07167265564203262	-0.02564687468111515	-0.15848121047019958	0.03549131378531456	-0.07434176653623581	0.12235517054796219	0.12479205429553986	-0.0202375128865242	-0.11667550355195999	-0.052117761224508286	-0.05977398902177811	-0.03000521846115589	-0.11068957298994064	-0.13911551237106323	-0.07544484734535217	0.10822468250989914	0.10671409964561462	-0.156467005610466	0.15305201709270477	-0.13777226209640503	0.02887757681310177	0.04108481481671333	0.02713877148926258	0.04010317474603653	0.017486365512013435	-0.11212543398141861	-0.09445623308420181	0.15577778220176697	-0.025518810376524925	0.10737777501344681	-0.12763908505439758	-0.05709388852119446	-0.12993697822093964	-0.016280949115753174	-0.036627184599637985	0.127995103597641	-0.09253314137458801	0.12423288822174072	0.04044575244188309	0.03530402109026909	-0.11435957252979279	0.0877089574933052	-0.0723922997713089	-0.13938923180103302	-0.13615675270557404	-0.1542518585920334	-0.14317095279693604	-0.06918974965810776	-0.14140963554382324	0.04612623527646065	-0.06496431678533554	0.1227497085928917	0.0020037703216075897	-0.00012431465438567102	-0.09567031264305115	-0.10554259270429611	-0.08768685162067413	0.11571444571018219	-0.11080431193113327	0.02951275371015072	0.05787639319896698	0.04146536439657211	-0.00414072722196579	-0.03386901319026947	-0.011102206073701382	0.07871468365192413	-0.06791061162948608	-0.033483296632766724	-0.15119580924510956	0.028206588700413704	0.12093830108642578	-0.10818054527044296	-0.10659684240818024	-0.002295386279001832	-0.14326459169387817
Lopinavir	0.08314633369445801	0.0929914265871048	-0.12442905455827713	-0.1460353583097458	-0.08291816711425781	0.01105984766036272	-0.05361291766166687	-0.0873231589794159	0.15688669681549072	0.14831911027431488	0.15141689777374268	0.11262868344783783	0.057033587247133255	0.12322133034467697	-0.07587216049432755	0.12318260967731476	-0.0639469102025032	0.06087655574083328	0.15449246764183044	-0.02032221108675003	0.13522808253765106	-0.15517517924308777	-0.06842812895774841	-0.08956917375326157	-0.1355428844690323	0.029939811676740646	-0.13224254548549652	-0.014291375875473022	-0.004658560734242201	0.0402035117149353	-0.07303936034440994	-0.049324244260787964	0.1579141467809677	0.15020740032196045	0.029343731701374054	-0.10882963240146637	0.09936574846506119	0.15104161202907562	-0.1130603477358818	-0.11310910433530807	0.07167177647352219	-0.0518406480550766	-0.023425616323947906	0.018782038241624832	0.11116420477628708	-0.12568646669387817	0.13432557880878448	-0.15370392799377441	0.024677250534296036	0.12126077711582184	-0.003820745274424553	0.08308014273643494	0.1156829372048378	0.01367791648954153	-0.1491091102361679	-0.1618281751871109	-0.025140836834907532	0.15129852294921875	-0.15547266602516174	0.12576141953468323	-0.07316833734512329	-0.023733070120215416	-0.13952860236167908	0.09247157722711563	-0.15561546385288239	-0.07038836926221848	-0.02943859063088894	0.10806386917829514	0.08298566192388535	0.15758618712425232	-0.10320916771888733	-0.08707635849714279	0.02944718301296234	0.11413486301898956	-0.11631057411432266	-0.16082102060317993	-0.0057408567517995834	-0.009180111810564995	-0.1358073204755783	-0.15678554773330688	0.022432925179600716	-0.12696950137615204	0.0009562563500367105	-0.08052582293748856	0.10164456814527512	-0.1486435979604721	0.09609697014093399	0.10778139531612396	-0.04996778443455696	-0.04628865048289299	0.046970006078481674	-0.03597041592001915	-0.03373194485902786	0.06707532703876495	0.07496649771928787	-0.09925106912851334
Ritonavir	0.014487327076494694	-0.0620560497045517	0.11612778902053833	0.15496577322483063	-0.13059544563293457	-0.13540242612361908	0.05926719680428505	-0.11099638044834137	0.058402713388204575	0.11805274337530136	0.08979595452547073	-0.1016673892736435	0.07620950043201447	-0.10521014034748077	-0.05960996821522713	0.10899072140455246	0.05522711202502251	0.12103509157896042	0.028485795482993126	-0.002653982024639845	-0.10517466068267822	-0.11669684201478958	0.041160739958286285	-0.011741982772946358	-0.051367901265621185	-0.11744522303342819	-0.047210268676280975	-0.13426241278648376	0.002837858162820339	0.059294603765010834	-0.06645204871892929	0.09995261579751968	0.07710430026054382	-0.0016157083446159959	0.08789797872304916	0.05012527108192444	0.07898562401533127	0.07310819625854492	-0.11208789050579071	0.06804578751325607	-0.022537291049957275	-0.15506096184253693	0.12186519801616669	0.14247848093509674	0.05371091887354851	-0.0863986685872078	-0.03901735693216324	-0.020257024094462395	-0.08884140104055405	-0.11814488470554352	-0.0011778016341850162	-0.0007737759733572602	0.15615849196910858	-0.0974513590335846	-0.00240151584148407	-0.14671961963176727	-0.14144828915596008	0.011419729329645634	-0.034168243408203125	0.12330689281225204	-0.14612311124801636	-0.040533773601055145	-0.15267375111579895	0.14847807586193085	0.0902911126613617	-0.08669290691614151	-0.1497047394514084	0.07163500040769577	-0.05922771990299225	0.0003503317420836538	-0.11162396520376205	0.03663221374154091	0.04791729152202606	0.14943626523017883	-0.09372852742671967	-0.07368201017379761	0.1433139592409134	0.14419783651828766	-0.0012412855867296457	0.019656717777252197	0.08010036498308182	-0.04092268645763397	0.10258163511753082	0.00830287765711546	-0.0008479307289235294	0.041333362460136414	-0.09959163516759872	-0.04551080986857414	-0.06706653535366058	-0.02945113554596901	0.03706720843911171	-0.16225560009479523	-0.008043947629630566	0.08755563944578171	-0.009200415574014187	-0.13735872507095337
Penicillin	0.14271749556064606	-0.09006831794977188	-0.08929003775119781	0.010777777060866356	-0.1545897126197815	-0.14219358563423157	0.1296260952949524	0.14116260409355164	0.024903709068894386	0.03125545755028725	0.13578763604164124	0.16114553809165955	-0.04015567898750305	-0.13884641230106354	0.14693555235862732	0.09172160923480988	0.06983519345521927	0.14306899905204773	0.14285998046398163	-0.046920135617256165	-0.06884180009365082	-0.12635034322738647	0.10194102674722672	0.05553213134407997	0.0892115905880928	-0.10236010700464249	-0.06931476294994354	0.06962452828884125	0.046710167080163956	0.03760647773742676	-0.10584285110235214	-0.05660228058695793	-0.0875985324382782	-0.09300386905670166	-0.16297121345996857	0.035330504179000854	-0.02393430285155773	-0.09813052415847778	-0.14741438627243042	0.11897559463977814	-0.1398010551929474	-0.1041109561920166	0.13805758953094482	0.12733151018619537	-0.04908158257603645	-0.059907153248786926	0.1482483595609665	0.02475142665207386	-0.14497621357440948	-0.047620099037885666	0.11999139189720154	0.01411364320665598	0.15061020851135254	-0.10654573887586594	-0.1090894415974617	0.09636075794696808	-0.07856591045856476	-0.15638984739780426	0.12622128427028656	-0.020460300147533417	-0.06602004915475845	-0.14562435448169708	-0.16067421436309814	0.10840331017971039	-0.08149755746126175	-0.04048272594809532	-0.0810224860906601	-0.06955372542142868	-0.09008357673883438	-0.05598755180835724	0.060872048139572144	-0.14803127944469452	0.05477333813905716	-0.03712821751832962	-0.0770106315612793	0.052769433706998825	-0.15246115624904633	0.06304106116294861	0.09186401218175888	0.13200722634792328	0.1392650455236435	0.0682058036327362	-0.03419142961502075	-0.11680179834365845	-0.08342296630144119	0.06392329931259155	-0.0018726926064118743	-0.09017093479633331	-0.12684795260429382	0.06296193599700928	0.09508960694074631	-0.05657612904906273	-0.057283125817775726	-0.14789389073848724	0.12563800811767578	0.1446555256843567
Ceftriaxone	-0.008493482135236263	-0.013986470177769661	0.026810288429260254	-0.13328127562999725	0.09240671992301941	-0.10199547559022903	-0.04729459434747696	0.08919572830200195	-0.11744977533817291	-0.08163390308618546	-0.04486076161265373	-0.10697715729475021	0.15441568195819855	0.09087174385786057	-0.05529715493321419	-0.10076048970222473	-0.025761252269148827	0.07627350836992264	-0.0145618487149477	-0.1404707431793213	0.1455836147069931	-0.15740162134170532	0.06134413555264473	-0.13689430058002472	0.013498596847057343	0.0193974319845438	0.08256714791059494	-0.08856549859046936	-0.13005384802818298	0.046047650277614594	-0.0207979753613472	-0.11635459214448929	-0.007876955904066563	-0.021121660247445107	-0.09316689521074295	0.15371038019657135	0.012849278748035431	0.11458589881658554	0.0018222327344119549	0.13819965720176697	-0.10068610310554504	0.13683483004570007	-0.01220980565994978	0.1463126838207245	0.09014680981636047	0.14716660976409912	0.15950913727283478	-0.016481077298521996	0.05528409406542778	0.04037647694349289	0.12157882750034332	0.06380515545606613	0.06916496902704239	0.07891835272312164	0.05408183112740517	-0.02350756525993347	0.11134593188762665	-0.07797355949878693	-0.09181603789329529	-0.1468515545129776	0.1031246930360794	0.14796295762062073	-0.09117330610752106	-0.14086125791072845	-0.0641200840473175	0.11792385578155518	-0.01784171164035797	0.08462975919246674	0.04229016974568367	0.1278780698776245	0.06809847801923752	0.053183041512966156	-0.07749678194522858	0.14491239190101624	0.15343423187732697	-0.0037003366742283106	0.04753848537802696	-0.10808862745761871	0.15143366158008575	0.028919821605086327	0.06471998244524002	0.13478733599185944	0.1370760202407837	-0.0647900253534317	0.060336992144584656	0.07621248811483383	0.025652194395661354	0.00572004122659564	-0.034546975046396255	0.09232113510370255	-0.1278844028711319	0.15519866347312927	-0.10543660074472427	0.03643614798784256	-0.09452425688505173	-0.006707902066409588
Vancomycin	0.006628695875406265	-0.13806889951229095	-0.09447026997804642	-0.03563463315367699	-0.16007071733474731	-0.1417609602212906	0.03328028321266174	-0.1344955414533615	0.15673470497131348	0.07704641669988632	-0.0839967131614685	-0.11558064073324203	-0.08277001231908798	-0.08981916308403015	0.04106207564473152	-0.03451601788401604	-0.07574982196092606	0.0005274233408272266	-0.008056738413870335	-0.05683797970414162	0.139555886387825	0.1314702332019806	-0.0965336263179779	0.12489324063062668	-0.05364864319562912	-0.01425651554018259	0.08841201663017273	-0.12482432276010513	-0.1131964698433876	0.03502349182963371	-0.13088619709014893	-0.011048235930502415	-0.09755668044090271	-0.15404045581817627	0.02223283238708973	0.05155564844608307	0.13540226221084595	0.12023985385894775	-0.11879362165927887	0.13966460525989532	0.04463442042469978	0.010430256836116314	0.02326950803399086	0.0354168526828289	-0.11568556725978851	-0.021538956090807915	0.018903542309999466	0.006840930785983801	0.029493117704987526	-0.029393035918474197	-0.08426662534475327	-0.0603058747947216	-0.1154002696275711	0.09258522838354111	-0.12563718855381012	-0.084342822432518	-0.03006572462618351	0.013603640720248222	-0.002407118445262313	0.09338203817605972	0.14788763225078583	-0.08002788573503494	-0.11858074367046356	-0.13921035826206207	0.01673084683716297	0.04679280146956444	0.01028733141720295	-0.14729568362236023	-0.06934268027544022	0.11888670176267624	0.09155431389808655	0.021696200594305992	-0.02852288819849491	0.11526984721422195	0.1065046563744545	-0.08229649066925049	-0.0938732847571373	0.14375005662441254	-0.014619817957282066	0.054720439016819	-0.13116180896759033	0.07645655423402786	-0.10464178770780563	-0.04931596666574478	-0.08912895619869232	0.020528821274638176	0.04614514112472534	-0.04212236404418945	-0.012967756018042564	0.09440101683139801	-0.04575004428625107	0.012952256016433239	-0.1498587280511856	0.060652319341897964	-0.12406432628631592	0.0036792850587517023
MRSA	-0.13700497150421143	0.034958578646183014	-0.15047425031661987	-0.05320286005735397	-0.10397829115390778	0.14793767035007477	0.034397825598716736	0.14902538061141968	-0.09875556081533432	0.10873498022556305	-0.15059275925159454	-0.11643106490373611	-0.07670318335294724	0.05813893303275108	0.04619194567203522	0.13283823430538177	-0.10771188139915466	-0.08665388077497482	0.0314691998064518	-0.09723304957151413	-0.07641617208719254	-0.07409895211458206	-0.11731187999248505	0.10749634355306625	-0.014969194307923317	-0.01685253344476223	0.0501113124191761	0.05268906056880951	0.14877551794052124	-0.10125302523374557	-0.10648735612630844	-0.15555019676685333	0.06973863393068314	0.13370893895626068	0.02554323710501194	0.1343419998884201	-0.14884808659553528	-0.09805863350629807	0.1628674864768982	-0.08506904542446136	0.14712195098400116	-0.0614812970161438	-0.05018306523561478	0.062109772115945816	-0.07375355809926987	-0.004791500512510538	-0.0026131472550332546	-0.09388688951730728	-0.013881679624319077	0.08329253643751144	0.13012953102588654	-0.13637559115886688	0.10884585976600647	0.13304466009140015	-0.13614481687545776	-0.0026601951103657484	-0.03077644482254982	-0.04283573850989342	0.0024040923453867435	0.08122163265943527	-0.045171964913606644	0.09621822834014893	-0.057465724647045135	-0.08194582164287567	-0.07343102991580963	-0.11511747539043427	-0.09143110364675522	-0.055244263261556625	-0.058883603662252426	0.03158905357122421	0.07069527357816696	-0.032475266605615616	-0.10489745438098907	-0.0393773578107357	0.09342873096466064	-0.13084663450717926	0.011603481136262417	0.07743112742900848	-0.031764619052410126	-0.16406582295894623	-0.04337169602513313	0.1377926617860794	-0.09946547448635101	-0.03722056746482849	-0.00489711482077837	0.14377588033676147	-0.1547062247991562	-0.08091404289007187	0.009929628111422062	0.11800701171159744	-0.14670927822589874	-0.11837995052337646	0.134497731924057	0.13071094453334808	-0.023554328829050064	0.14790427684783936
Albuterol	-0.11399713903665543	-0.04518987983465195	-0.10363573580980301	-0.1410929262638092	0.00857061892747879	-0.11529956012964249	-0.15195859968662262	0.09273628890514374	-0.05079188570380211	0.025207586586475372	0.1457148939371109	0.07485581189393997	-0.1198284775018692	-0.10773558169603348	-0.16116659343242645	-0.04764387756586075	0.11702021956443787	0.0906214490532875	0.16320443153381348	0.054545655846595764	-0.005082940682768822	0.13892707228660583	-0.1277797669172287	-0.08849901705980301	0.11342453211545944	-0.024549951776862144	-0.061181724071502686	-0.019454356282949448	0.15371112525463104	-0.023045703768730164	0.14703403413295746	0.0673002079129219	-0.09530336409807205	-0.03980278968811035	0.1530938446521759	0.039920296519994736	-0.1577499806880951	-0.053614843636751175	-0.03627494350075722	-0.06888309121131897	0.0308398324996233	-0.04731803014874458	0.03951041400432587	0.14106081426143646	-0.07960428297519684	-0.14222092926502228	0.12369932234287262	-0.10495245456695557	-0.04728449136018753	0.09015238285064697	0.061194222420454025	-0.11318602412939072	0.08857265114784241	-0.1025407612323761	0.04913230985403061	-0.017925549298524857	-0.1510387510061264	0.073121078312397	-0.13231723010540009	0.14693410694599152	0.10762336105108261	-0.01615316793322563	0.06726782768964767	0.10535337775945663	0.13105913996696472	-0.04410454258322716	0.13343387842178345	0.04451034963130951	0.008803901262581348	0.08845773339271545	0.11026598513126373	-0.038901668041944504	-0.13898228108882904	-0.1255607008934021	-0.06708864867687225	-0.08342816680669785	-0.044429078698158264	0.09015132486820221	0.15586812794208527	0.062236886471509933	-0.04987205192446709	-0.1438795030117035	-0.09233357012271881	-0.03330319747328758	-0.07230684906244278	0.03802349045872688	-0.09929212927818298	0.13397662341594696	0.1493922472000122	0.04506956413388252	0.08867223560810089	-0.02793886698782444	0.03998733311891556	0.051331695169210434	-0.12467092275619507	0.03009520284831524
Salmeterol	0.07162738591432571	-0.12282481044530869	0.0418342724442482	0.08877520263195038	-0.15787889063358307	0.009477583691477776	-0.0917244702577591	-0.09950289875268936	-0.02902330458164215	0.021054716780781746	0.052456434816122055	-0.15470094978809357	-0.07219544053077698	-0.018603263422846794	0.1334792524576187	0.10907542705535889	0.011226511560380459	0.0725998729467392	-0.1543809026479721	-0.14628490805625916	-0.05803559347987175	-0.11306650936603546	-0.07774444669485092	-0.006800316274166107	0.06417758762836456	-0.05267074704170227	0.10970290005207062	0.14918002486228943	0.13395050168037415	-0.1439577341079712	0.07640605419874191	-0.10493838787078857	0.11024241149425507	-0.15341044962406158	0.12829475104808807	-0.12225932627916336	-0.11544107645750046	-0.012738712131977081	0.019385984167456627	-0.08217643946409225	0.12432518601417542	-0.004472489468753338	-0.009990863502025604	0.14860163629055023	0.15314480662345886	0.04283945634961128	0.15995220839977264	-0.13399101793766022	0.10055747628211975	0.005208021029829979	0.15292198956012726	0.11779632419347763	0.08477237075567245	0.010860213078558445	-0.025412820279598236	-0.03768295422196388	-0.011365532875061035	-0.13398708403110504	-0.0050781951285898685	0.1250794380903244	-0.159466952085495	-0.09223393350839615	0.012651124969124794	0.11202848702669144	0.1268891543149948	0.12801936268806458	-0.12247535586357117	-0.0007314542308449745	-0.06571532040834427	-0.09863752126693726	0.05850159376859665	-0.026931265369057655	0.10361596941947937	-0.14100375771522522	-0.04655718430876732	-0.1271420121192932	0.1408107578754425	-0.02853470854461193	-0.08472297340631485	-0.11215764284133911	-0.14877307415008545	-0.06139693781733513	0.09832137078046799	-0.01798659935593605	0.011830966919660568	-0.10286392271518707	0.12851928174495697	-0.07459381222724915	-0.14356869459152222	-0.0396353043615818	-0.153182253241539	-0.02770164981484413	0.09537654370069504	-0.01984063908457756	-0.05241217836737633	0.020455878227949142
